FANN_FLO_2.1
num_layers=3
learning_rate=0.700000
connection_rate=1.000000
network_type=0
learning_momentum=0.000000
training_algorithm=2
train_error_function=1
train_stop_function=0
cascade_output_change_fraction=0.010000
quickprop_decay=-0.000100
quickprop_mu=1.750000
rprop_increase_factor=1.200000
rprop_decrease_factor=0.500000
rprop_delta_min=0.000000
rprop_delta_max=50.000000
rprop_delta_zero=0.100000
cascade_output_stagnation_epochs=12
cascade_candidate_change_fraction=0.010000
cascade_candidate_stagnation_epochs=12
cascade_max_out_epochs=150
cascade_min_out_epochs=50
cascade_max_cand_epochs=150
cascade_min_cand_epochs=50
cascade_num_candidate_groups=2
bit_fail_limit=3.49999994039535522461e-01
cascade_candidate_limit=1.00000000000000000000e+03
cascade_weight_multiplier=4.00000005960464477539e-01
cascade_activation_functions_count=10
cascade_activation_functions=3 5 7 8 10 11 14 15 16 17 
cascade_activation_steepnesses_count=4
cascade_activation_steepnesses=2.50000000000000000000e-01 5.00000000000000000000e-01 7.50000000000000000000e-01 1.00000000000000000000e+00 
layer_sizes=785 31 11 
scale_included=0
neurons (num_inputs, activation_function, activation_steepness)=(0, 0, 0.00000000000000000000e+00) (0, 0, 0.00000000000000000000e+00) (0, 0, 0.00000000000000000000e+00) (0, 0, 0.00000000000000000000e+00) (0, 0, 0.00000000000000000000e+00) (0, 0, 0.00000000000000000000e+00) (0, 0, 0.00000000000000000000e+00) (0, 0, 0.00000000000000000000e+00) (0, 0, 0.00000000000000000000e+00) (0, 0, 0.00000000000000000000e+00) (0, 0, 0.00000000000000000000e+00) (0, 0, 0.00000000000000000000e+00) (0, 0, 0.00000000000000000000e+00) (0, 0, 0.00000000000000000000e+00) (0, 0, 0.00000000000000000000e+00) (0, 0, 0.00000000000000000000e+00) (0, 0, 0.00000000000000000000e+00) (0, 0, 0.00000000000000000000e+00) (0, 0, 0.00000000000000000000e+00) (0, 0, 0.00000000000000000000e+00) (0, 0, 0.00000000000000000000e+00) (0, 0, 0.00000000000000000000e+00) (0, 0, 0.00000000000000000000e+00) (0, 0, 0.00000000000000000000e+00) (0, 0, 0.00000000000000000000e+00) (0, 0, 0.00000000000000000000e+00) (0, 0, 0.00000000000000000000e+00) (0, 0, 0.00000000000000000000e+00) (0, 0, 0.00000000000000000000e+00) (0, 0, 0.00000000000000000000e+00) (0, 0, 0.00000000000000000000e+00) (0, 0, 0.00000000000000000000e+00) (0, 0, 0.00000000000000000000e+00) (0, 0, 0.00000000000000000000e+00) (0, 0, 0.00000000000000000000e+00) (0, 0, 0.00000000000000000000e+00) (0, 0, 0.00000000000000000000e+00) (0, 0, 0.00000000000000000000e+00) (0, 0, 0.00000000000000000000e+00) (0, 0, 0.00000000000000000000e+00) (0, 0, 0.00000000000000000000e+00) (0, 0, 0.00000000000000000000e+00) (0, 0, 0.00000000000000000000e+00) (0, 0, 0.00000000000000000000e+00) (0, 0, 0.00000000000000000000e+00) (0, 0, 0.00000000000000000000e+00) (0, 0, 0.00000000000000000000e+00) (0, 0, 0.00000000000000000000e+00) (0, 0, 0.00000000000000000000e+00) (0, 0, 0.00000000000000000000e+00) (0, 0, 0.00000000000000000000e+00) (0, 0, 0.00000000000000000000e+00) (0, 0, 0.00000000000000000000e+00) (0, 0, 0.00000000000000000000e+00) (0, 0, 0.00000000000000000000e+00) (0, 0, 0.00000000000000000000e+00) (0, 0, 0.00000000000000000000e+00) (0, 0, 0.00000000000000000000e+00) (0, 0, 0.00000000000000000000e+00) (0, 0, 0.00000000000000000000e+00) (0, 0, 0.00000000000000000000e+00) (0, 0, 0.00000000000000000000e+00) (0, 0, 0.00000000000000000000e+00) (0, 0, 0.00000000000000000000e+00) (0, 0, 0.00000000000000000000e+00) (0, 0, 0.00000000000000000000e+00) (0, 0, 0.00000000000000000000e+00) (0, 0, 0.00000000000000000000e+00) (0, 0, 0.00000000000000000000e+00) (0, 0, 0.00000000000000000000e+00) (0, 0, 0.00000000000000000000e+00) (0, 0, 0.00000000000000000000e+00) (0, 0, 0.00000000000000000000e+00) (0, 0, 0.00000000000000000000e+00) (0, 0, 0.00000000000000000000e+00) (0, 0, 0.00000000000000000000e+00) (0, 0, 0.00000000000000000000e+00) (0, 0, 0.00000000000000000000e+00) (0, 0, 0.00000000000000000000e+00) (0, 0, 0.00000000000000000000e+00) (0, 0, 0.00000000000000000000e+00) (0, 0, 0.00000000000000000000e+00) (0, 0, 0.00000000000000000000e+00) (0, 0, 0.00000000000000000000e+00) (0, 0, 0.00000000000000000000e+00) (0, 0, 0.00000000000000000000e+00) (0, 0, 0.00000000000000000000e+00) (0, 0, 0.00000000000000000000e+00) (0, 0, 0.00000000000000000000e+00) (0, 0, 0.00000000000000000000e+00) (0, 0, 0.00000000000000000000e+00) (0, 0, 0.00000000000000000000e+00) (0, 0, 0.00000000000000000000e+00) (0, 0, 0.00000000000000000000e+00) (0, 0, 0.00000000000000000000e+00) (0, 0, 0.00000000000000000000e+00) (0, 0, 0.00000000000000000000e+00) (0, 0, 0.00000000000000000000e+00) (0, 0, 0.00000000000000000000e+00) (0, 0, 0.00000000000000000000e+00) (0, 0, 0.00000000000000000000e+00) (0, 0, 0.00000000000000000000e+00) (0, 0, 0.00000000000000000000e+00) (0, 0, 0.00000000000000000000e+00) (0, 0, 0.00000000000000000000e+00) (0, 0, 0.00000000000000000000e+00) (0, 0, 0.00000000000000000000e+00) (0, 0, 0.00000000000000000000e+00) (0, 0, 0.00000000000000000000e+00) (0, 0, 0.00000000000000000000e+00) (0, 0, 0.00000000000000000000e+00) (0, 0, 0.00000000000000000000e+00) (0, 0, 0.00000000000000000000e+00) (0, 0, 0.00000000000000000000e+00) (0, 0, 0.00000000000000000000e+00) (0, 0, 0.00000000000000000000e+00) (0, 0, 0.00000000000000000000e+00) (0, 0, 0.00000000000000000000e+00) (0, 0, 0.00000000000000000000e+00) (0, 0, 0.00000000000000000000e+00) (0, 0, 0.00000000000000000000e+00) (0, 0, 0.00000000000000000000e+00) (0, 0, 0.00000000000000000000e+00) (0, 0, 0.00000000000000000000e+00) (0, 0, 0.00000000000000000000e+00) (0, 0, 0.00000000000000000000e+00) (0, 0, 0.00000000000000000000e+00) (0, 0, 0.00000000000000000000e+00) (0, 0, 0.00000000000000000000e+00) (0, 0, 0.00000000000000000000e+00) (0, 0, 0.00000000000000000000e+00) (0, 0, 0.00000000000000000000e+00) (0, 0, 0.00000000000000000000e+00) (0, 0, 0.00000000000000000000e+00) (0, 0, 0.00000000000000000000e+00) (0, 0, 0.00000000000000000000e+00) (0, 0, 0.00000000000000000000e+00) (0, 0, 0.00000000000000000000e+00) (0, 0, 0.00000000000000000000e+00) (0, 0, 0.00000000000000000000e+00) (0, 0, 0.00000000000000000000e+00) (0, 0, 0.00000000000000000000e+00) (0, 0, 0.00000000000000000000e+00) (0, 0, 0.00000000000000000000e+00) (0, 0, 0.00000000000000000000e+00) (0, 0, 0.00000000000000000000e+00) (0, 0, 0.00000000000000000000e+00) (0, 0, 0.00000000000000000000e+00) (0, 0, 0.00000000000000000000e+00) (0, 0, 0.00000000000000000000e+00) (0, 0, 0.00000000000000000000e+00) (0, 0, 0.00000000000000000000e+00) (0, 0, 0.00000000000000000000e+00) (0, 0, 0.00000000000000000000e+00) (0, 0, 0.00000000000000000000e+00) (0, 0, 0.00000000000000000000e+00) (0, 0, 0.00000000000000000000e+00) (0, 0, 0.00000000000000000000e+00) (0, 0, 0.00000000000000000000e+00) (0, 0, 0.00000000000000000000e+00) (0, 0, 0.00000000000000000000e+00) (0, 0, 0.00000000000000000000e+00) (0, 0, 0.00000000000000000000e+00) (0, 0, 0.00000000000000000000e+00) (0, 0, 0.00000000000000000000e+00) (0, 0, 0.00000000000000000000e+00) (0, 0, 0.00000000000000000000e+00) (0, 0, 0.00000000000000000000e+00) (0, 0, 0.00000000000000000000e+00) (0, 0, 0.00000000000000000000e+00) (0, 0, 0.00000000000000000000e+00) (0, 0, 0.00000000000000000000e+00) (0, 0, 0.00000000000000000000e+00) (0, 0, 0.00000000000000000000e+00) (0, 0, 0.00000000000000000000e+00) (0, 0, 0.00000000000000000000e+00) (0, 0, 0.00000000000000000000e+00) (0, 0, 0.00000000000000000000e+00) (0, 0, 0.00000000000000000000e+00) (0, 0, 0.00000000000000000000e+00) (0, 0, 0.00000000000000000000e+00) (0, 0, 0.00000000000000000000e+00) (0, 0, 0.00000000000000000000e+00) (0, 0, 0.00000000000000000000e+00) (0, 0, 0.00000000000000000000e+00) (0, 0, 0.00000000000000000000e+00) (0, 0, 0.00000000000000000000e+00) (0, 0, 0.00000000000000000000e+00) (0, 0, 0.00000000000000000000e+00) (0, 0, 0.00000000000000000000e+00) (0, 0, 0.00000000000000000000e+00) (0, 0, 0.00000000000000000000e+00) (0, 0, 0.00000000000000000000e+00) (0, 0, 0.00000000000000000000e+00) (0, 0, 0.00000000000000000000e+00) (0, 0, 0.00000000000000000000e+00) (0, 0, 0.00000000000000000000e+00) (0, 0, 0.00000000000000000000e+00) (0, 0, 0.00000000000000000000e+00) (0, 0, 0.00000000000000000000e+00) (0, 0, 0.00000000000000000000e+00) (0, 0, 0.00000000000000000000e+00) (0, 0, 0.00000000000000000000e+00) (0, 0, 0.00000000000000000000e+00) (0, 0, 0.00000000000000000000e+00) (0, 0, 0.00000000000000000000e+00) (0, 0, 0.00000000000000000000e+00) (0, 0, 0.00000000000000000000e+00) (0, 0, 0.00000000000000000000e+00) (0, 0, 0.00000000000000000000e+00) (0, 0, 0.00000000000000000000e+00) (0, 0, 0.00000000000000000000e+00) (0, 0, 0.00000000000000000000e+00) (0, 0, 0.00000000000000000000e+00) (0, 0, 0.00000000000000000000e+00) (0, 0, 0.00000000000000000000e+00) (0, 0, 0.00000000000000000000e+00) (0, 0, 0.00000000000000000000e+00) (0, 0, 0.00000000000000000000e+00) (0, 0, 0.00000000000000000000e+00) (0, 0, 0.00000000000000000000e+00) (0, 0, 0.00000000000000000000e+00) (0, 0, 0.00000000000000000000e+00) (0, 0, 0.00000000000000000000e+00) (0, 0, 0.00000000000000000000e+00) (0, 0, 0.00000000000000000000e+00) (0, 0, 0.00000000000000000000e+00) (0, 0, 0.00000000000000000000e+00) (0, 0, 0.00000000000000000000e+00) (0, 0, 0.00000000000000000000e+00) (0, 0, 0.00000000000000000000e+00) (0, 0, 0.00000000000000000000e+00) (0, 0, 0.00000000000000000000e+00) (0, 0, 0.00000000000000000000e+00) (0, 0, 0.00000000000000000000e+00) (0, 0, 0.00000000000000000000e+00) (0, 0, 0.00000000000000000000e+00) (0, 0, 0.00000000000000000000e+00) (0, 0, 0.00000000000000000000e+00) (0, 0, 0.00000000000000000000e+00) (0, 0, 0.00000000000000000000e+00) (0, 0, 0.00000000000000000000e+00) (0, 0, 0.00000000000000000000e+00) (0, 0, 0.00000000000000000000e+00) (0, 0, 0.00000000000000000000e+00) (0, 0, 0.00000000000000000000e+00) (0, 0, 0.00000000000000000000e+00) (0, 0, 0.00000000000000000000e+00) (0, 0, 0.00000000000000000000e+00) (0, 0, 0.00000000000000000000e+00) (0, 0, 0.00000000000000000000e+00) (0, 0, 0.00000000000000000000e+00) (0, 0, 0.00000000000000000000e+00) (0, 0, 0.00000000000000000000e+00) (0, 0, 0.00000000000000000000e+00) (0, 0, 0.00000000000000000000e+00) (0, 0, 0.00000000000000000000e+00) (0, 0, 0.00000000000000000000e+00) (0, 0, 0.00000000000000000000e+00) (0, 0, 0.00000000000000000000e+00) (0, 0, 0.00000000000000000000e+00) (0, 0, 0.00000000000000000000e+00) (0, 0, 0.00000000000000000000e+00) (0, 0, 0.00000000000000000000e+00) (0, 0, 0.00000000000000000000e+00) (0, 0, 0.00000000000000000000e+00) (0, 0, 0.00000000000000000000e+00) (0, 0, 0.00000000000000000000e+00) (0, 0, 0.00000000000000000000e+00) (0, 0, 0.00000000000000000000e+00) (0, 0, 0.00000000000000000000e+00) (0, 0, 0.00000000000000000000e+00) (0, 0, 0.00000000000000000000e+00) (0, 0, 0.00000000000000000000e+00) (0, 0, 0.00000000000000000000e+00) (0, 0, 0.00000000000000000000e+00) (0, 0, 0.00000000000000000000e+00) (0, 0, 0.00000000000000000000e+00) (0, 0, 0.00000000000000000000e+00) (0, 0, 0.00000000000000000000e+00) (0, 0, 0.00000000000000000000e+00) (0, 0, 0.00000000000000000000e+00) (0, 0, 0.00000000000000000000e+00) (0, 0, 0.00000000000000000000e+00) (0, 0, 0.00000000000000000000e+00) (0, 0, 0.00000000000000000000e+00) (0, 0, 0.00000000000000000000e+00) (0, 0, 0.00000000000000000000e+00) (0, 0, 0.00000000000000000000e+00) (0, 0, 0.00000000000000000000e+00) (0, 0, 0.00000000000000000000e+00) (0, 0, 0.00000000000000000000e+00) (0, 0, 0.00000000000000000000e+00) (0, 0, 0.00000000000000000000e+00) (0, 0, 0.00000000000000000000e+00) (0, 0, 0.00000000000000000000e+00) (0, 0, 0.00000000000000000000e+00) (0, 0, 0.00000000000000000000e+00) (0, 0, 0.00000000000000000000e+00) (0, 0, 0.00000000000000000000e+00) (0, 0, 0.00000000000000000000e+00) (0, 0, 0.00000000000000000000e+00) (0, 0, 0.00000000000000000000e+00) (0, 0, 0.00000000000000000000e+00) (0, 0, 0.00000000000000000000e+00) (0, 0, 0.00000000000000000000e+00) (0, 0, 0.00000000000000000000e+00) (0, 0, 0.00000000000000000000e+00) (0, 0, 0.00000000000000000000e+00) (0, 0, 0.00000000000000000000e+00) (0, 0, 0.00000000000000000000e+00) (0, 0, 0.00000000000000000000e+00) (0, 0, 0.00000000000000000000e+00) (0, 0, 0.00000000000000000000e+00) (0, 0, 0.00000000000000000000e+00) (0, 0, 0.00000000000000000000e+00) (0, 0, 0.00000000000000000000e+00) (0, 0, 0.00000000000000000000e+00) (0, 0, 0.00000000000000000000e+00) (0, 0, 0.00000000000000000000e+00) (0, 0, 0.00000000000000000000e+00) (0, 0, 0.00000000000000000000e+00) (0, 0, 0.00000000000000000000e+00) (0, 0, 0.00000000000000000000e+00) (0, 0, 0.00000000000000000000e+00) (0, 0, 0.00000000000000000000e+00) (0, 0, 0.00000000000000000000e+00) (0, 0, 0.00000000000000000000e+00) (0, 0, 0.00000000000000000000e+00) (0, 0, 0.00000000000000000000e+00) (0, 0, 0.00000000000000000000e+00) (0, 0, 0.00000000000000000000e+00) (0, 0, 0.00000000000000000000e+00) (0, 0, 0.00000000000000000000e+00) (0, 0, 0.00000000000000000000e+00) (0, 0, 0.00000000000000000000e+00) (0, 0, 0.00000000000000000000e+00) (0, 0, 0.00000000000000000000e+00) (0, 0, 0.00000000000000000000e+00) (0, 0, 0.00000000000000000000e+00) (0, 0, 0.00000000000000000000e+00) (0, 0, 0.00000000000000000000e+00) (0, 0, 0.00000000000000000000e+00) (0, 0, 0.00000000000000000000e+00) (0, 0, 0.00000000000000000000e+00) (0, 0, 0.00000000000000000000e+00) (0, 0, 0.00000000000000000000e+00) (0, 0, 0.00000000000000000000e+00) (0, 0, 0.00000000000000000000e+00) (0, 0, 0.00000000000000000000e+00) (0, 0, 0.00000000000000000000e+00) (0, 0, 0.00000000000000000000e+00) (0, 0, 0.00000000000000000000e+00) (0, 0, 0.00000000000000000000e+00) (0, 0, 0.00000000000000000000e+00) (0, 0, 0.00000000000000000000e+00) (0, 0, 0.00000000000000000000e+00) (0, 0, 0.00000000000000000000e+00) (0, 0, 0.00000000000000000000e+00) (0, 0, 0.00000000000000000000e+00) (0, 0, 0.00000000000000000000e+00) (0, 0, 0.00000000000000000000e+00) (0, 0, 0.00000000000000000000e+00) (0, 0, 0.00000000000000000000e+00) (0, 0, 0.00000000000000000000e+00) (0, 0, 0.00000000000000000000e+00) (0, 0, 0.00000000000000000000e+00) (0, 0, 0.00000000000000000000e+00) (0, 0, 0.00000000000000000000e+00) (0, 0, 0.00000000000000000000e+00) (0, 0, 0.00000000000000000000e+00) (0, 0, 0.00000000000000000000e+00) (0, 0, 0.00000000000000000000e+00) (0, 0, 0.00000000000000000000e+00) (0, 0, 0.00000000000000000000e+00) (0, 0, 0.00000000000000000000e+00) (0, 0, 0.00000000000000000000e+00) (0, 0, 0.00000000000000000000e+00) (0, 0, 0.00000000000000000000e+00) (0, 0, 0.00000000000000000000e+00) (0, 0, 0.00000000000000000000e+00) (0, 0, 0.00000000000000000000e+00) (0, 0, 0.00000000000000000000e+00) (0, 0, 0.00000000000000000000e+00) (0, 0, 0.00000000000000000000e+00) (0, 0, 0.00000000000000000000e+00) (0, 0, 0.00000000000000000000e+00) (0, 0, 0.00000000000000000000e+00) (0, 0, 0.00000000000000000000e+00) (0, 0, 0.00000000000000000000e+00) (0, 0, 0.00000000000000000000e+00) (0, 0, 0.00000000000000000000e+00) (0, 0, 0.00000000000000000000e+00) (0, 0, 0.00000000000000000000e+00) (0, 0, 0.00000000000000000000e+00) (0, 0, 0.00000000000000000000e+00) (0, 0, 0.00000000000000000000e+00) (0, 0, 0.00000000000000000000e+00) (0, 0, 0.00000000000000000000e+00) (0, 0, 0.00000000000000000000e+00) (0, 0, 0.00000000000000000000e+00) (0, 0, 0.00000000000000000000e+00) (0, 0, 0.00000000000000000000e+00) (0, 0, 0.00000000000000000000e+00) (0, 0, 0.00000000000000000000e+00) (0, 0, 0.00000000000000000000e+00) (0, 0, 0.00000000000000000000e+00) (0, 0, 0.00000000000000000000e+00) (0, 0, 0.00000000000000000000e+00) (0, 0, 0.00000000000000000000e+00) (0, 0, 0.00000000000000000000e+00) (0, 0, 0.00000000000000000000e+00) (0, 0, 0.00000000000000000000e+00) (0, 0, 0.00000000000000000000e+00) (0, 0, 0.00000000000000000000e+00) (0, 0, 0.00000000000000000000e+00) (0, 0, 0.00000000000000000000e+00) (0, 0, 0.00000000000000000000e+00) (0, 0, 0.00000000000000000000e+00) (0, 0, 0.00000000000000000000e+00) (0, 0, 0.00000000000000000000e+00) (0, 0, 0.00000000000000000000e+00) (0, 0, 0.00000000000000000000e+00) (0, 0, 0.00000000000000000000e+00) (0, 0, 0.00000000000000000000e+00) (0, 0, 0.00000000000000000000e+00) (0, 0, 0.00000000000000000000e+00) (0, 0, 0.00000000000000000000e+00) (0, 0, 0.00000000000000000000e+00) (0, 0, 0.00000000000000000000e+00) (0, 0, 0.00000000000000000000e+00) (0, 0, 0.00000000000000000000e+00) (0, 0, 0.00000000000000000000e+00) (0, 0, 0.00000000000000000000e+00) (0, 0, 0.00000000000000000000e+00) (0, 0, 0.00000000000000000000e+00) (0, 0, 0.00000000000000000000e+00) (0, 0, 0.00000000000000000000e+00) (0, 0, 0.00000000000000000000e+00) (0, 0, 0.00000000000000000000e+00) (0, 0, 0.00000000000000000000e+00) (0, 0, 0.00000000000000000000e+00) (0, 0, 0.00000000000000000000e+00) (0, 0, 0.00000000000000000000e+00) (0, 0, 0.00000000000000000000e+00) (0, 0, 0.00000000000000000000e+00) (0, 0, 0.00000000000000000000e+00) (0, 0, 0.00000000000000000000e+00) (0, 0, 0.00000000000000000000e+00) (0, 0, 0.00000000000000000000e+00) (0, 0, 0.00000000000000000000e+00) (0, 0, 0.00000000000000000000e+00) (0, 0, 0.00000000000000000000e+00) (0, 0, 0.00000000000000000000e+00) (0, 0, 0.00000000000000000000e+00) (0, 0, 0.00000000000000000000e+00) (0, 0, 0.00000000000000000000e+00) (0, 0, 0.00000000000000000000e+00) (0, 0, 0.00000000000000000000e+00) (0, 0, 0.00000000000000000000e+00) (0, 0, 0.00000000000000000000e+00) (0, 0, 0.00000000000000000000e+00) (0, 0, 0.00000000000000000000e+00) (0, 0, 0.00000000000000000000e+00) (0, 0, 0.00000000000000000000e+00) (0, 0, 0.00000000000000000000e+00) (0, 0, 0.00000000000000000000e+00) (0, 0, 0.00000000000000000000e+00) (0, 0, 0.00000000000000000000e+00) (0, 0, 0.00000000000000000000e+00) (0, 0, 0.00000000000000000000e+00) (0, 0, 0.00000000000000000000e+00) (0, 0, 0.00000000000000000000e+00) (0, 0, 0.00000000000000000000e+00) (0, 0, 0.00000000000000000000e+00) (0, 0, 0.00000000000000000000e+00) (0, 0, 0.00000000000000000000e+00) (0, 0, 0.00000000000000000000e+00) (0, 0, 0.00000000000000000000e+00) (0, 0, 0.00000000000000000000e+00) (0, 0, 0.00000000000000000000e+00) (0, 0, 0.00000000000000000000e+00) (0, 0, 0.00000000000000000000e+00) (0, 0, 0.00000000000000000000e+00) (0, 0, 0.00000000000000000000e+00) (0, 0, 0.00000000000000000000e+00) (0, 0, 0.00000000000000000000e+00) (0, 0, 0.00000000000000000000e+00) (0, 0, 0.00000000000000000000e+00) (0, 0, 0.00000000000000000000e+00) (0, 0, 0.00000000000000000000e+00) (0, 0, 0.00000000000000000000e+00) (0, 0, 0.00000000000000000000e+00) (0, 0, 0.00000000000000000000e+00) (0, 0, 0.00000000000000000000e+00) (0, 0, 0.00000000000000000000e+00) (0, 0, 0.00000000000000000000e+00) (0, 0, 0.00000000000000000000e+00) (0, 0, 0.00000000000000000000e+00) (0, 0, 0.00000000000000000000e+00) (0, 0, 0.00000000000000000000e+00) (0, 0, 0.00000000000000000000e+00) (0, 0, 0.00000000000000000000e+00) (0, 0, 0.00000000000000000000e+00) (0, 0, 0.00000000000000000000e+00) (0, 0, 0.00000000000000000000e+00) (0, 0, 0.00000000000000000000e+00) (0, 0, 0.00000000000000000000e+00) (0, 0, 0.00000000000000000000e+00) (0, 0, 0.00000000000000000000e+00) (0, 0, 0.00000000000000000000e+00) (0, 0, 0.00000000000000000000e+00) (0, 0, 0.00000000000000000000e+00) (0, 0, 0.00000000000000000000e+00) (0, 0, 0.00000000000000000000e+00) (0, 0, 0.00000000000000000000e+00) (0, 0, 0.00000000000000000000e+00) (0, 0, 0.00000000000000000000e+00) (0, 0, 0.00000000000000000000e+00) (0, 0, 0.00000000000000000000e+00) (0, 0, 0.00000000000000000000e+00) (0, 0, 0.00000000000000000000e+00) (0, 0, 0.00000000000000000000e+00) (0, 0, 0.00000000000000000000e+00) (0, 0, 0.00000000000000000000e+00) (0, 0, 0.00000000000000000000e+00) (0, 0, 0.00000000000000000000e+00) (0, 0, 0.00000000000000000000e+00) (0, 0, 0.00000000000000000000e+00) (0, 0, 0.00000000000000000000e+00) (0, 0, 0.00000000000000000000e+00) (0, 0, 0.00000000000000000000e+00) (0, 0, 0.00000000000000000000e+00) (0, 0, 0.00000000000000000000e+00) (0, 0, 0.00000000000000000000e+00) (0, 0, 0.00000000000000000000e+00) (0, 0, 0.00000000000000000000e+00) (0, 0, 0.00000000000000000000e+00) (0, 0, 0.00000000000000000000e+00) (0, 0, 0.00000000000000000000e+00) (0, 0, 0.00000000000000000000e+00) (0, 0, 0.00000000000000000000e+00) (0, 0, 0.00000000000000000000e+00) (0, 0, 0.00000000000000000000e+00) (0, 0, 0.00000000000000000000e+00) (0, 0, 0.00000000000000000000e+00) (0, 0, 0.00000000000000000000e+00) (0, 0, 0.00000000000000000000e+00) (0, 0, 0.00000000000000000000e+00) (0, 0, 0.00000000000000000000e+00) (0, 0, 0.00000000000000000000e+00) (0, 0, 0.00000000000000000000e+00) (0, 0, 0.00000000000000000000e+00) (0, 0, 0.00000000000000000000e+00) (0, 0, 0.00000000000000000000e+00) (0, 0, 0.00000000000000000000e+00) (0, 0, 0.00000000000000000000e+00) (0, 0, 0.00000000000000000000e+00) (0, 0, 0.00000000000000000000e+00) (0, 0, 0.00000000000000000000e+00) (0, 0, 0.00000000000000000000e+00) (0, 0, 0.00000000000000000000e+00) (0, 0, 0.00000000000000000000e+00) (0, 0, 0.00000000000000000000e+00) (0, 0, 0.00000000000000000000e+00) (0, 0, 0.00000000000000000000e+00) (0, 0, 0.00000000000000000000e+00) (0, 0, 0.00000000000000000000e+00) (0, 0, 0.00000000000000000000e+00) (0, 0, 0.00000000000000000000e+00) (0, 0, 0.00000000000000000000e+00) (0, 0, 0.00000000000000000000e+00) (0, 0, 0.00000000000000000000e+00) (0, 0, 0.00000000000000000000e+00) (0, 0, 0.00000000000000000000e+00) (0, 0, 0.00000000000000000000e+00) (0, 0, 0.00000000000000000000e+00) (0, 0, 0.00000000000000000000e+00) (0, 0, 0.00000000000000000000e+00) (0, 0, 0.00000000000000000000e+00) (0, 0, 0.00000000000000000000e+00) (0, 0, 0.00000000000000000000e+00) (0, 0, 0.00000000000000000000e+00) (0, 0, 0.00000000000000000000e+00) (0, 0, 0.00000000000000000000e+00) (0, 0, 0.00000000000000000000e+00) (0, 0, 0.00000000000000000000e+00) (0, 0, 0.00000000000000000000e+00) (0, 0, 0.00000000000000000000e+00) (0, 0, 0.00000000000000000000e+00) (0, 0, 0.00000000000000000000e+00) (0, 0, 0.00000000000000000000e+00) (0, 0, 0.00000000000000000000e+00) (0, 0, 0.00000000000000000000e+00) (0, 0, 0.00000000000000000000e+00) (0, 0, 0.00000000000000000000e+00) (0, 0, 0.00000000000000000000e+00) (0, 0, 0.00000000000000000000e+00) (0, 0, 0.00000000000000000000e+00) (0, 0, 0.00000000000000000000e+00) (0, 0, 0.00000000000000000000e+00) (0, 0, 0.00000000000000000000e+00) (0, 0, 0.00000000000000000000e+00) (0, 0, 0.00000000000000000000e+00) (0, 0, 0.00000000000000000000e+00) (0, 0, 0.00000000000000000000e+00) (0, 0, 0.00000000000000000000e+00) (0, 0, 0.00000000000000000000e+00) (0, 0, 0.00000000000000000000e+00) (0, 0, 0.00000000000000000000e+00) (0, 0, 0.00000000000000000000e+00) (0, 0, 0.00000000000000000000e+00) (0, 0, 0.00000000000000000000e+00) (0, 0, 0.00000000000000000000e+00) (0, 0, 0.00000000000000000000e+00) (0, 0, 0.00000000000000000000e+00) (0, 0, 0.00000000000000000000e+00) (0, 0, 0.00000000000000000000e+00) (0, 0, 0.00000000000000000000e+00) (0, 0, 0.00000000000000000000e+00) (0, 0, 0.00000000000000000000e+00) (0, 0, 0.00000000000000000000e+00) (0, 0, 0.00000000000000000000e+00) (0, 0, 0.00000000000000000000e+00) (0, 0, 0.00000000000000000000e+00) (0, 0, 0.00000000000000000000e+00) (0, 0, 0.00000000000000000000e+00) (0, 0, 0.00000000000000000000e+00) (0, 0, 0.00000000000000000000e+00) (0, 0, 0.00000000000000000000e+00) (0, 0, 0.00000000000000000000e+00) (0, 0, 0.00000000000000000000e+00) (0, 0, 0.00000000000000000000e+00) (0, 0, 0.00000000000000000000e+00) (0, 0, 0.00000000000000000000e+00) (0, 0, 0.00000000000000000000e+00) (0, 0, 0.00000000000000000000e+00) (0, 0, 0.00000000000000000000e+00) (0, 0, 0.00000000000000000000e+00) (0, 0, 0.00000000000000000000e+00) (0, 0, 0.00000000000000000000e+00) (0, 0, 0.00000000000000000000e+00) (0, 0, 0.00000000000000000000e+00) (0, 0, 0.00000000000000000000e+00) (0, 0, 0.00000000000000000000e+00) (0, 0, 0.00000000000000000000e+00) (0, 0, 0.00000000000000000000e+00) (0, 0, 0.00000000000000000000e+00) (0, 0, 0.00000000000000000000e+00) (0, 0, 0.00000000000000000000e+00) (0, 0, 0.00000000000000000000e+00) (0, 0, 0.00000000000000000000e+00) (0, 0, 0.00000000000000000000e+00) (0, 0, 0.00000000000000000000e+00) (0, 0, 0.00000000000000000000e+00) (0, 0, 0.00000000000000000000e+00) (0, 0, 0.00000000000000000000e+00) (0, 0, 0.00000000000000000000e+00) (0, 0, 0.00000000000000000000e+00) (0, 0, 0.00000000000000000000e+00) (0, 0, 0.00000000000000000000e+00) (0, 0, 0.00000000000000000000e+00) (0, 0, 0.00000000000000000000e+00) (0, 0, 0.00000000000000000000e+00) (0, 0, 0.00000000000000000000e+00) (0, 0, 0.00000000000000000000e+00) (0, 0, 0.00000000000000000000e+00) (0, 0, 0.00000000000000000000e+00) (0, 0, 0.00000000000000000000e+00) (0, 0, 0.00000000000000000000e+00) (0, 0, 0.00000000000000000000e+00) (0, 0, 0.00000000000000000000e+00) (0, 0, 0.00000000000000000000e+00) (0, 0, 0.00000000000000000000e+00) (0, 0, 0.00000000000000000000e+00) (0, 0, 0.00000000000000000000e+00) (0, 0, 0.00000000000000000000e+00) (0, 0, 0.00000000000000000000e+00) (0, 0, 0.00000000000000000000e+00) (0, 0, 0.00000000000000000000e+00) (0, 0, 0.00000000000000000000e+00) (0, 0, 0.00000000000000000000e+00) (0, 0, 0.00000000000000000000e+00) (0, 0, 0.00000000000000000000e+00) (0, 0, 0.00000000000000000000e+00) (0, 0, 0.00000000000000000000e+00) (0, 0, 0.00000000000000000000e+00) (0, 0, 0.00000000000000000000e+00) (0, 0, 0.00000000000000000000e+00) (0, 0, 0.00000000000000000000e+00) (0, 0, 0.00000000000000000000e+00) (0, 0, 0.00000000000000000000e+00) (0, 0, 0.00000000000000000000e+00) (0, 0, 0.00000000000000000000e+00) (0, 0, 0.00000000000000000000e+00) (0, 0, 0.00000000000000000000e+00) (0, 0, 0.00000000000000000000e+00) (0, 0, 0.00000000000000000000e+00) (0, 0, 0.00000000000000000000e+00) (0, 0, 0.00000000000000000000e+00) (0, 0, 0.00000000000000000000e+00) (0, 0, 0.00000000000000000000e+00) (0, 0, 0.00000000000000000000e+00) (0, 0, 0.00000000000000000000e+00) (0, 0, 0.00000000000000000000e+00) (0, 0, 0.00000000000000000000e+00) (0, 0, 0.00000000000000000000e+00) (0, 0, 0.00000000000000000000e+00) (0, 0, 0.00000000000000000000e+00) (0, 0, 0.00000000000000000000e+00) (0, 0, 0.00000000000000000000e+00) (0, 0, 0.00000000000000000000e+00) (0, 0, 0.00000000000000000000e+00) (0, 0, 0.00000000000000000000e+00) (0, 0, 0.00000000000000000000e+00) (0, 0, 0.00000000000000000000e+00) (0, 0, 0.00000000000000000000e+00) (0, 0, 0.00000000000000000000e+00) (0, 0, 0.00000000000000000000e+00) (0, 0, 0.00000000000000000000e+00) (0, 0, 0.00000000000000000000e+00) (0, 0, 0.00000000000000000000e+00) (0, 0, 0.00000000000000000000e+00) (0, 0, 0.00000000000000000000e+00) (0, 0, 0.00000000000000000000e+00) (0, 0, 0.00000000000000000000e+00) (0, 0, 0.00000000000000000000e+00) (0, 0, 0.00000000000000000000e+00) (0, 0, 0.00000000000000000000e+00) (0, 0, 0.00000000000000000000e+00) (0, 0, 0.00000000000000000000e+00) (0, 0, 0.00000000000000000000e+00) (0, 0, 0.00000000000000000000e+00) (0, 0, 0.00000000000000000000e+00) (0, 0, 0.00000000000000000000e+00) (0, 0, 0.00000000000000000000e+00) (0, 0, 0.00000000000000000000e+00) (0, 0, 0.00000000000000000000e+00) (0, 0, 0.00000000000000000000e+00) (0, 0, 0.00000000000000000000e+00) (0, 0, 0.00000000000000000000e+00) (0, 0, 0.00000000000000000000e+00) (0, 0, 0.00000000000000000000e+00) (0, 0, 0.00000000000000000000e+00) (0, 0, 0.00000000000000000000e+00) (0, 0, 0.00000000000000000000e+00) (0, 0, 0.00000000000000000000e+00) (0, 0, 0.00000000000000000000e+00) (0, 0, 0.00000000000000000000e+00) (0, 0, 0.00000000000000000000e+00) (0, 0, 0.00000000000000000000e+00) (0, 0, 0.00000000000000000000e+00) (0, 0, 0.00000000000000000000e+00) (0, 0, 0.00000000000000000000e+00) (0, 0, 0.00000000000000000000e+00) (0, 0, 0.00000000000000000000e+00) (0, 0, 0.00000000000000000000e+00) (0, 0, 0.00000000000000000000e+00) (0, 0, 0.00000000000000000000e+00) (0, 0, 0.00000000000000000000e+00) (0, 0, 0.00000000000000000000e+00) (0, 0, 0.00000000000000000000e+00) (0, 0, 0.00000000000000000000e+00) (0, 0, 0.00000000000000000000e+00) (0, 0, 0.00000000000000000000e+00) (0, 0, 0.00000000000000000000e+00) (0, 0, 0.00000000000000000000e+00) (0, 0, 0.00000000000000000000e+00) (0, 0, 0.00000000000000000000e+00) (0, 0, 0.00000000000000000000e+00) (0, 0, 0.00000000000000000000e+00) (0, 0, 0.00000000000000000000e+00) (0, 0, 0.00000000000000000000e+00) (0, 0, 0.00000000000000000000e+00) (0, 0, 0.00000000000000000000e+00) (0, 0, 0.00000000000000000000e+00) (0, 0, 0.00000000000000000000e+00) (0, 0, 0.00000000000000000000e+00) (0, 0, 0.00000000000000000000e+00) (0, 0, 0.00000000000000000000e+00) (0, 0, 0.00000000000000000000e+00) (0, 0, 0.00000000000000000000e+00) (0, 0, 0.00000000000000000000e+00) (0, 0, 0.00000000000000000000e+00) (0, 0, 0.00000000000000000000e+00) (785, 5, 5.00000000000000000000e-01) (785, 5, 5.00000000000000000000e-01) (785, 5, 5.00000000000000000000e-01) (785, 5, 5.00000000000000000000e-01) (785, 5, 5.00000000000000000000e-01) (785, 5, 5.00000000000000000000e-01) (785, 5, 5.00000000000000000000e-01) (785, 5, 5.00000000000000000000e-01) (785, 5, 5.00000000000000000000e-01) (785, 5, 5.00000000000000000000e-01) (785, 5, 5.00000000000000000000e-01) (785, 5, 5.00000000000000000000e-01) (785, 5, 5.00000000000000000000e-01) (785, 5, 5.00000000000000000000e-01) (785, 5, 5.00000000000000000000e-01) (785, 5, 5.00000000000000000000e-01) (785, 5, 5.00000000000000000000e-01) (785, 5, 5.00000000000000000000e-01) (785, 5, 5.00000000000000000000e-01) (785, 5, 5.00000000000000000000e-01) (785, 5, 5.00000000000000000000e-01) (785, 5, 5.00000000000000000000e-01) (785, 5, 5.00000000000000000000e-01) (785, 5, 5.00000000000000000000e-01) (785, 5, 5.00000000000000000000e-01) (785, 5, 5.00000000000000000000e-01) (785, 5, 5.00000000000000000000e-01) (785, 5, 5.00000000000000000000e-01) (785, 5, 5.00000000000000000000e-01) (785, 5, 5.00000000000000000000e-01) (0, 5, 0.00000000000000000000e+00) (31, 5, 5.00000000000000000000e-01) (31, 5, 5.00000000000000000000e-01) (31, 5, 5.00000000000000000000e-01) (31, 5, 5.00000000000000000000e-01) (31, 5, 5.00000000000000000000e-01) (31, 5, 5.00000000000000000000e-01) (31, 5, 5.00000000000000000000e-01) (31, 5, 5.00000000000000000000e-01) (31, 5, 5.00000000000000000000e-01) (31, 5, 5.00000000000000000000e-01) (0, 5, 0.00000000000000000000e+00) 
connections (connected_to_neuron, weight)=(0, 1.50000000000000000000e+03) (1, 1.50000000000000000000e+03) (2, 1.50000000000000000000e+03) (3, 1.50000000000000000000e+03) (4, 1.50000000000000000000e+03) (5, 1.50000000000000000000e+03) (6, 1.50000000000000000000e+03) (7, 1.50000000000000000000e+03) (8, 1.50000000000000000000e+03) (9, 1.50000000000000000000e+03) (10, 1.50000000000000000000e+03) (11, 1.50000000000000000000e+03) (12, 1.29080004882812500000e+03) (13, 1.29723937988281250000e+03) (14, -1.50000000000000000000e+03) (15, -1.50000000000000000000e+03) (16, 1.50000000000000000000e+03) (17, 1.50000000000000000000e+03) (18, 1.50000000000000000000e+03) (19, 1.50000000000000000000e+03) (20, 1.50000000000000000000e+03) (21, 1.50000000000000000000e+03) (22, 1.50000000000000000000e+03) (23, 1.50000000000000000000e+03) (24, 1.50000000000000000000e+03) (25, 1.50000000000000000000e+03) (26, 1.50000000000000000000e+03) (27, 1.50000000000000000000e+03) (28, 1.50000000000000000000e+03) (29, 1.50000000000000000000e+03) (30, 1.50000000000000000000e+03) (31, 1.50000000000000000000e+03) (32, -1.50000000000000000000e+03) (33, -1.35221130371093750000e+03) (34, 1.50000000000000000000e+03) (35, 1.50000000000000000000e+03) (36, -8.21463928222656250000e+02) (37, 1.50000000000000000000e+03) (38, 1.50000000000000000000e+03) (39, 1.50000000000000000000e+03) (40, 1.50000000000000000000e+03) (41, 1.50000000000000000000e+03) (42, 1.50000000000000000000e+03) (43, 1.50000000000000000000e+03) (44, 1.50000000000000000000e+03) (45, 1.50000000000000000000e+03) (46, 1.42304711914062500000e+03) (47, -1.14004614257812500000e+03) (48, 6.26320800781250000000e+01) (49, 5.07774414062500000000e+02) (50, 8.87253479003906250000e+02) (51, 1.38509265136718750000e+03) (52, 1.50000000000000000000e+03) (53, 1.50000000000000000000e+03) (54, 1.50000000000000000000e+03) (55, 1.50000000000000000000e+03) (56, 1.50000000000000000000e+03) (57, 1.50000000000000000000e+03) (58, -1.50000000000000000000e+03) (59, 1.50000000000000000000e+03) (60, 2.90800048828125000000e+02) (61, -6.17796875000000000000e+02) (62, -1.31580004882812500000e+03) (63, -1.47500000000000000000e+03) (64, -9.92882141113281250000e+02) (65, -4.18171081542968750000e+02) (66, -1.50000000000000000000e+03) (67, -1.50000000000000000000e+03) (68, -1.50000000000000000000e+03) (69, -1.50000000000000000000e+03) (70, -1.50000000000000000000e+03) (71, -1.50000000000000000000e+03) (72, -1.17166711425781250000e+03) (73, 1.50000000000000000000e+03) (74, 1.50000000000000000000e+03) (75, 1.50000000000000000000e+03) (76, 1.49086425781250000000e+02) (77, -1.48258972167968750000e+03) (78, -1.50000000000000000000e+03) (79, -1.50000000000000000000e+03) (80, -1.50000000000000000000e+03) (81, -1.50000000000000000000e+03) (82, 1.50000000000000000000e+03) (83, 1.50000000000000000000e+03) (84, 1.50000000000000000000e+03) (85, 1.50000000000000000000e+03) (86, 1.14080004882812500000e+03) (87, 1.50000000000000000000e+03) (88, 1.50000000000000000000e+03) (89, 1.50000000000000000000e+03) (90, -1.35987951660156250000e+03) (91, -9.89261352539062500000e+02) (92, -1.19587133789062500000e+03) (93, 5.33846984863281250000e+02) (94, 1.49978063964843750000e+03) (95, 1.50000000000000000000e+03) (96, 1.50000000000000000000e+03) (97, 1.50000000000000000000e+03) (98, 1.50000000000000000000e+03) (99, 1.50000000000000000000e+03) (100, 1.50000000000000000000e+03) (101, 1.50000000000000000000e+03) (102, 1.50000000000000000000e+03) (103, 1.50000000000000000000e+03) (104, 1.50000000000000000000e+03) (105, 1.50000000000000000000e+03) (106, 1.50000000000000000000e+03) (107, -1.50000000000000000000e+03) (108, -1.50000000000000000000e+03) (109, -1.50000000000000000000e+03) (110, -1.01085821533203125000e+03) (111, 1.50000000000000000000e+03) (112, 1.50000000000000000000e+03) (113, -1.11580004882812500000e+03) (114, 1.50000000000000000000e+03) (115, 5.35932983398437500000e+02) (116, -1.50000000000000000000e+03) (117, 1.50000000000000000000e+03) (118, -1.07436474609375000000e+03) (119, 1.31505554199218750000e+03) (120, 1.50000000000000000000e+03) (121, 1.50000000000000000000e+03) (122, 1.50000000000000000000e+03) (123, 1.50000000000000000000e+03) (124, 1.50000000000000000000e+03) (125, 1.50000000000000000000e+03) (126, 1.50000000000000000000e+03) (127, 1.49277893066406250000e+03) (128, 3.41494659423828125000e+02) (129, -1.43353613281250000000e+03) (130, -4.25825469970703125000e+02) (131, -7.08702636718750000000e+02) (132, -9.18750549316406250000e+02) (133, -1.39493652343750000000e+03) (134, -1.50000000000000000000e+03) (135, -1.50000000000000000000e+03) (136, 1.50000000000000000000e+03) (137, 8.01363281250000000000e+02) (138, -1.50000000000000000000e+03) (139, -1.50000000000000000000e+03) (140, 1.50000000000000000000e+03) (141, 1.50000000000000000000e+03) (142, 1.50000000000000000000e+03) (143, 1.50000000000000000000e+03) (144, 1.50000000000000000000e+03) (145, 1.50000000000000000000e+03) (146, 1.50000000000000000000e+03) (147, 1.50000000000000000000e+03) (148, 1.50000000000000000000e+03) (149, 1.50000000000000000000e+03) (150, 1.50000000000000000000e+03) (151, 1.50000000000000000000e+03) (152, 1.50000000000000000000e+03) (153, 1.49866162109375000000e+03) (154, 1.45658740234375000000e+03) (155, 1.25207397460937500000e+03) (156, 3.87082397460937500000e+02) (157, 8.08648193359375000000e+02) (158, 3.23773002624511718750e+01) (159, 2.00223587036132812500e+02) (160, -1.23973925781250000000e+03) (161, -1.48019580078125000000e+03) (162, -1.50000000000000000000e+03) (163, -1.44791711425781250000e+03) (164, -9.69514282226562500000e+02) (165, 1.50000000000000000000e+03) (166, 7.31119934082031250000e+02) (167, -1.37248107910156250000e+03) (168, 1.50000000000000000000e+03) (169, 1.50000000000000000000e+03) (170, -1.50000000000000000000e+03) (171, 1.50000000000000000000e+03) (172, 1.50000000000000000000e+03) (173, 1.50000000000000000000e+03) (174, 1.50000000000000000000e+03) (175, 1.50000000000000000000e+03) (176, 1.50000000000000000000e+03) (177, 1.47050219726562500000e+03) (178, -5.03847312927246093750e+00) (179, -3.44581902027130126953e-01) (180, 1.41039462760090827942e-02) (181, 1.49988061523437500000e+03) (182, 1.49518457031250000000e+03) (183, 1.47619372558593750000e+03) (184, 1.48217419433593750000e+03) (185, 1.49946667480468750000e+03) (186, 1.50000000000000000000e+03) (187, 1.49991394042968750000e+03) (188, 1.49856958007812500000e+03) (189, -3.20392150878906250000e+01) (190, 1.48214477539062500000e+03) (191, -1.50000000000000000000e+03) (192, -9.71082397460937500000e+02) (193, 1.11344104003906250000e+03) (194, 1.50000000000000000000e+03) (195, 1.50000000000000000000e+03) (196, -1.50000000000000000000e+03) (197, 1.50000000000000000000e+03) (198, -1.50000000000000000000e+03) (199, -1.42029321289062500000e+03) (200, 1.50000000000000000000e+03) (201, 1.50000000000000000000e+03) (202, -1.33140454101562500000e+03) (203, -1.50000000000000000000e+03) (204, -1.50000000000000000000e+03) (205, -1.50000000000000000000e+03) (206, -1.50000000000000000000e+03) (207, -1.36307629394531250000e+03) (208, -1.04136355221271514893e-01) (209, 1.49104919433593750000e+03) (210, 1.50000000000000000000e+03) (211, 1.50000000000000000000e+03) (212, 1.50000000000000000000e+03) (213, 1.50000000000000000000e+03) (214, 1.50000000000000000000e+03) (215, 1.95618667602539062500e+01) (216, 1.49991857910156250000e+03) (217, 1.49931335449218750000e+03) (218, 1.47854943847656250000e+03) (219, -5.39274230957031250000e+02) (220, -1.50000000000000000000e+03) (221, 1.50000000000000000000e+03) (222, 1.50000000000000000000e+03) (223, 1.50000000000000000000e+03) (224, 1.50000000000000000000e+03) (225, -1.50000000000000000000e+03) (226, -1.50000000000000000000e+03) (227, -1.50000000000000000000e+03) (228, 1.50000000000000000000e+03) (229, 1.50000000000000000000e+03) (230, -1.48107250976562500000e+03) (231, -1.50000000000000000000e+03) (232, -1.50000000000000000000e+03) (233, -1.50000000000000000000e+03) (234, -1.50000000000000000000e+03) (235, -1.28870361328125000000e+03) (236, -2.85331463813781738281e+00) (237, 5.11058868408203125000e+02) (238, 8.67309204101562500000e+02) (239, 5.77829833984375000000e+02) (240, 8.18079528808593750000e+01) (241, 3.01742553710937500000e+01) (242, 1.00060440063476562500e+02) (243, 1.88119161128997802734e+00) (244, 1.49987829589843750000e+03) (245, 1.49874829101562500000e+03) (246, 1.49346618652343750000e+03) (247, -1.50000000000000000000e+03) (248, -1.49995898437500000000e+03) (249, 1.50000000000000000000e+03) (250, 1.50000000000000000000e+03) (251, 1.50000000000000000000e+03) (252, -1.50000000000000000000e+03) (253, -1.50000000000000000000e+03) (254, -1.50000000000000000000e+03) (255, -1.50000000000000000000e+03) (256, 1.50000000000000000000e+03) (257, 8.62637268066406250000e+02) (258, -1.50000000000000000000e+03) (259, -1.50000000000000000000e+03) (260, -1.50000000000000000000e+03) (261, -1.50000000000000000000e+03) (262, -1.50000000000000000000e+03) (263, -9.73813056945800781250e+00) (264, -1.25296440124511718750e+01) (265, -1.70838868618011474609e+00) (266, -1.42756628417968750000e+03) (267, -1.49182983398437500000e+03) (268, -1.44440417480468750000e+03) (269, -1.17466979980468750000e+03) (270, -5.71085433959960937500e+01) (271, -3.41841429471969604492e-01) (272, 1.49920117187500000000e+03) (273, 1.49922595214843750000e+03) (274, 1.49722412109375000000e+03) (275, -1.50000000000000000000e+03) (276, 1.49454357910156250000e+03) (277, 1.50000000000000000000e+03) (278, 1.50000000000000000000e+03) (279, -1.50000000000000000000e+03) (280, -1.50000000000000000000e+03) (281, -1.50000000000000000000e+03) (282, -1.50000000000000000000e+03) (283, -1.50000000000000000000e+03) (284, 1.50000000000000000000e+03) (285, -1.42131994628906250000e+03) (286, -1.49503479003906250000e+03) (287, -1.50000000000000000000e+03) (288, -1.50000000000000000000e+03) (289, -3.38627777099609375000e+02) (290, 7.74903535842895507812e-01) (291, -1.26501810550689697266e+00) (292, -5.50403118133544921875e+00) (293, -1.49756628417968750000e+03) (294, -1.49410534667968750000e+03) (295, -1.41557189941406250000e+03) (296, -1.15137133789062500000e+03) (297, -1.41365832519531250000e+03) (298, -8.84907348632812500000e+02) (299, -1.15281748771667480469e+00) (300, -8.78343429565429687500e+01) (301, 3.29944610595703125000e-01) (302, 1.59391015768051147461e-01) (303, 1.17906030273437500000e+03) (304, -1.08476000976562500000e+03) (305, 1.50000000000000000000e+03) (306, 1.50000000000000000000e+03) (307, -1.50000000000000000000e+03) (308, -1.47500000000000000000e+03) (309, -1.50000000000000000000e+03) (310, -1.50000000000000000000e+03) (311, -1.50000000000000000000e+03) (312, 1.50000000000000000000e+03) (313, 4.28835510253906250000e+02) (314, -1.47444934082031250000e+03) (315, -1.35140893554687500000e+03) (316, 2.05626113891601562500e+02) (317, 1.43465173339843750000e+03) (318, 6.22963562011718750000e+02) (319, -1.29012823104858398438e+00) (320, -1.49870788574218750000e+03) (321, -1.35759924316406250000e+03) (322, -6.23452758789062500000e+00) (323, -1.48226499557495117188e-01) (324, -1.82365882396697998047e+00) (325, -3.47548408508300781250e+01) (326, -3.25062255859375000000e+01) (327, -5.74921727180480957031e-01) (328, -8.25598430633544921875e+00) (329, -2.17749313354492187500e+02) (330, -1.50000000000000000000e+03) (331, -1.50000000000000000000e+03) (332, -1.50000000000000000000e+03) (333, -1.50000000000000000000e+03) (334, 1.50000000000000000000e+03) (335, 1.50000000000000000000e+03) (336, -1.50000000000000000000e+03) (337, -1.50000000000000000000e+03) (338, -1.50000000000000000000e+03) (339, 1.50000000000000000000e+03) (340, -1.47478564453125000000e+03) (341, -1.48072912597656250000e+03) (342, 1.50000000000000000000e+03) (343, 1.45223120117187500000e+03) (344, 1.49890673828125000000e+03) (345, 1.49124072265625000000e+03) (346, 1.48934484863281250000e+03) (347, 3.29104385375976562500e+01) (348, 1.49997631835937500000e+03) (349, 1.50000000000000000000e+03) (350, 1.50000000000000000000e+03) (351, 1.50000000000000000000e+03) (352, 4.25708526611328125000e+02) (353, -1.45648032426834106445e-01) (354, 3.54886874556541442871e-02) (355, 3.28226585388183593750e+01) (356, -2.31177124023437500000e+02) (357, -4.50128662109375000000e+02) (358, -1.50000000000000000000e+03) (359, -1.12814903259277343750e+02) (360, -1.50000000000000000000e+03) (361, -1.50000000000000000000e+03) (362, 1.50000000000000000000e+03) (363, -1.50000000000000000000e+03) (364, -1.50000000000000000000e+03) (365, -1.50000000000000000000e+03) (366, -1.50000000000000000000e+03) (367, -1.50000000000000000000e+03) (368, 8.70801467895507812500e+01) (369, 1.50000000000000000000e+03) (370, 1.50000000000000000000e+03) (371, 1.50000000000000000000e+03) (372, 1.50000000000000000000e+03) (373, 1.50000000000000000000e+03) (374, 1.50000000000000000000e+03) (375, 1.50000000000000000000e+03) (376, 1.50000000000000000000e+03) (377, 1.50000000000000000000e+03) (378, 1.50000000000000000000e+03) (379, 1.50000000000000000000e+03) (380, 1.50000000000000000000e+03) (381, 1.50000000000000000000e+03) (382, 1.50000000000000000000e+03) (383, 3.60455083847045898438e+00) (384, -1.50000000000000000000e+03) (385, -1.41988989257812500000e+03) (386, -1.50000000000000000000e+03) (387, -1.50000000000000000000e+03) (388, -1.50000000000000000000e+03) (389, -1.50000000000000000000e+03) (390, 1.50000000000000000000e+03) (391, 1.50000000000000000000e+03) (392, -1.50000000000000000000e+03) (393, -1.50000000000000000000e+03) (394, -1.50000000000000000000e+03) (395, -1.50000000000000000000e+03) (396, 1.49996459960937500000e+03) (397, 1.50000000000000000000e+03) (398, 1.50000000000000000000e+03) (399, 1.50000000000000000000e+03) (400, 1.50000000000000000000e+03) (401, 1.50000000000000000000e+03) (402, 1.50000000000000000000e+03) (403, 1.50000000000000000000e+03) (404, 1.50000000000000000000e+03) (405, 1.50000000000000000000e+03) (406, 1.50000000000000000000e+03) (407, 1.50000000000000000000e+03) (408, 1.50000000000000000000e+03) (409, 1.50000000000000000000e+03) (410, 1.50000000000000000000e+03) (411, -1.22007043457031250000e+03) (412, -1.50000000000000000000e+03) (413, -1.50000000000000000000e+03) (414, -1.46088696289062500000e+03) (415, -1.50000000000000000000e+03) (416, -1.50000000000000000000e+03) (417, -1.50000000000000000000e+03) (418, 1.50000000000000000000e+03) (419, 1.50000000000000000000e+03) (420, -1.50000000000000000000e+03) (421, 1.50000000000000000000e+03) (422, -1.50000000000000000000e+03) (423, -1.50000000000000000000e+03) (424, 1.42718762207031250000e+03) (425, 1.50000000000000000000e+03) (426, 1.49959582519531250000e+03) (427, 1.50000000000000000000e+03) (428, 1.50000000000000000000e+03) (429, 1.50000000000000000000e+03) (430, 1.50000000000000000000e+03) (431, 1.50000000000000000000e+03) (432, 1.50000000000000000000e+03) (433, 1.50000000000000000000e+03) (434, 1.50000000000000000000e+03) (435, 1.36188507080078125000e+00) (436, 1.08769159317016601562e+01) (437, 1.48850573730468750000e+03) (438, 7.80070829391479492188e+00) (439, -1.18840686035156250000e+03) (440, -1.50000000000000000000e+03) (441, -1.50000000000000000000e+03) (442, -1.38957202148437500000e+03) (443, -1.33354125976562500000e+03) (444, -1.50000000000000000000e+03) (445, 6.95686279296875000000e+02) (446, 1.50000000000000000000e+03) (447, 1.50000000000000000000e+03) (448, -1.17581567382812500000e+03) (449, -1.50000000000000000000e+03) (450, 1.50000000000000000000e+03) (451, -1.50000000000000000000e+03) (452, -1.50000000000000000000e+03) (453, 1.49993884277343750000e+03) (454, 1.45179199218750000000e+03) (455, 1.49098889160156250000e+03) (456, 1.50000000000000000000e+03) (457, 1.50000000000000000000e+03) (458, 1.50000000000000000000e+03) (459, 1.47518896484375000000e+03) (460, 5.65458679199218750000e+02) (461, 6.99085187911987304688e+00) (462, 6.46445810794830322266e-01) (463, -1.23014793395996093750e+02) (464, 1.04261450469493865967e-01) (465, -2.73641049861907958984e-01) (466, 1.94870328903198242188e+00) (467, -6.01254577636718750000e+02) (468, 1.32801403808593750000e+03) (469, 3.16655273437500000000e+02) (470, 1.28704309082031250000e+03) (471, 1.50000000000000000000e+03) (472, -1.33541259765625000000e+03) (473, 1.50000000000000000000e+03) (474, 1.50000000000000000000e+03) (475, 1.50000000000000000000e+03) (476, 1.50000000000000000000e+03) (477, -1.35146191406250000000e+03) (478, 1.50000000000000000000e+03) (479, 1.50000000000000000000e+03) (480, 1.49169091796875000000e+03) (481, 1.35992114257812500000e+03) (482, 6.24703735351562500000e+02) (483, 1.44277136230468750000e+03) (484, 1.41278625488281250000e+03) (485, 1.49668835449218750000e+03) (486, 8.06493469238281250000e+02) (487, -6.42580078125000000000e+02) (488, -1.49420495605468750000e+03) (489, -1.49666247558593750000e+03) (490, -1.48385522460937500000e+03) (491, -1.35607714843750000000e+03) (492, -9.80854332447052001953e-02) (493, 5.12474894523620605469e-01) (494, -1.74818153381347656250e+01) (495, 1.49894104003906250000e+03) (496, 1.42147265625000000000e+03) (497, 1.43698547363281250000e+03) (498, 1.47576342773437500000e+03) (499, 1.50000000000000000000e+03) (500, 2.28549747467041015625e+01) (501, -6.66216125488281250000e+02) (502, -1.22190173339843750000e+03) (503, 1.50000000000000000000e+03) (504, 1.50000000000000000000e+03) (505, -1.46700000000000000000e+03) (506, 1.50000000000000000000e+03) (507, 1.50000000000000000000e+03) (508, 1.50000000000000000000e+03) (509, 1.49157031250000000000e+03) (510, 1.47084326171875000000e+03) (511, 9.17858123779296875000e+01) (512, -2.46460006713867187500e+02) (513, 1.04247363281250000000e+03) (514, 1.45878303050994873047e+00) (515, -1.49249084472656250000e+03) (516, -1.37656018066406250000e+03) (517, -1.49686999511718750000e+03) (518, -1.49970678710937500000e+03) (519, -1.40445178222656250000e+03) (520, 1.16991169750690460205e-01) (521, 5.77378112792968750000e+02) (522, 1.48401989746093750000e+03) (523, 1.48082165527343750000e+03) (524, 1.47852441406250000000e+03) (525, 1.49981689453125000000e+03) (526, 1.50000000000000000000e+03) (527, 1.50000000000000000000e+03) (528, 1.50000000000000000000e+03) (529, -1.50000000000000000000e+03) (530, -1.50000000000000000000e+03) (531, 1.50000000000000000000e+03) (532, 1.50000000000000000000e+03) (533, -1.50000000000000000000e+03) (534, 1.50000000000000000000e+03) (535, 1.50000000000000000000e+03) (536, 1.50000000000000000000e+03) (537, 1.49976013183593750000e+03) (538, 1.48684094238281250000e+03) (539, 1.36511010742187500000e+03) (540, -2.44920257568359375000e+02) (541, 5.41014465332031250000e+02) (542, 8.46131742000579833984e-02) (543, -1.45027563476562500000e+03) (544, -1.41840283203125000000e+03) (545, -1.44886306762695312500e+02) (546, -2.23380203247070312500e+01) (547, 4.43327352404594421387e-02) (548, 5.38575210571289062500e+01) (549, 1.24944689941406250000e+03) (550, 1.49826208496093750000e+03) (551, 1.49194677734375000000e+03) (552, 1.49690844726562500000e+03) (553, 1.50000000000000000000e+03) (554, 1.50000000000000000000e+03) (555, 1.50000000000000000000e+03) (556, 1.50000000000000000000e+03) (557, -1.50000000000000000000e+03) (558, 1.50000000000000000000e+03) (559, 1.50000000000000000000e+03) (560, 1.50000000000000000000e+03) (561, 1.50000000000000000000e+03) (562, 1.50000000000000000000e+03) (563, 1.50000000000000000000e+03) (564, 1.50000000000000000000e+03) (565, 1.50000000000000000000e+03) (566, 1.49998718261718750000e+03) (567, 1.46696606445312500000e+03) (568, 1.43543261718750000000e+03) (569, 1.49233862304687500000e+03) (570, 4.59282457828521728516e-01) (571, -2.53659500122070312500e+02) (572, -1.49860559082031250000e+03) (573, -1.12050268554687500000e+03) (574, 1.14576078951358795166e-01) (575, 1.48693469238281250000e+03) (576, 1.49986425781250000000e+03) (577, 1.47717187500000000000e+03) (578, 1.49090808105468750000e+03) (579, 1.46644091796875000000e+03) (580, 1.50000000000000000000e+03) (581, 1.50000000000000000000e+03) (582, 1.50000000000000000000e+03) (583, 1.50000000000000000000e+03) (584, -1.50000000000000000000e+03) (585, 1.50000000000000000000e+03) (586, 1.50000000000000000000e+03) (587, -1.22469189453125000000e+03) (588, 1.39080004882812500000e+03) (589, -1.38583642578125000000e+03) (590, 1.50000000000000000000e+03) (591, 1.50000000000000000000e+03) (592, 1.50000000000000000000e+03) (593, 1.50000000000000000000e+03) (594, 1.50000000000000000000e+03) (595, 1.42677795410156250000e+03) (596, 1.44569262695312500000e+03) (597, 8.70406555175781250000e+02) (598, 2.98858276367187500000e+02) (599, -7.57806472778320312500e+01) (600, -8.09146728515625000000e+02) (601, 6.87804489135742187500e+01) (602, 1.45314562988281250000e+03) (603, 1.25091113281250000000e+03) (604, 1.48929760742187500000e+03) (605, 1.48596777343750000000e+03) (606, 1.30452856445312500000e+03) (607, 1.50000000000000000000e+03) (608, 1.50000000000000000000e+03) (609, 1.50000000000000000000e+03) (610, 1.50000000000000000000e+03) (611, -1.20435156250000000000e+03) (612, -1.50000000000000000000e+03) (613, -1.11905158996582031250e+02) (614, 6.67760192871093750000e+02) (615, -1.50000000000000000000e+03) (616, 1.39080004882812500000e+03) (617, 1.50000000000000000000e+03) (618, 1.50000000000000000000e+03) (619, 1.50000000000000000000e+03) (620, 1.50000000000000000000e+03) (621, 1.50000000000000000000e+03) (622, 1.50000000000000000000e+03) (623, -2.12283706665039062500e+02) (624, 5.67007422447204589844e-01) (625, 3.46961631774902343750e+01) (626, 7.70074844360351562500e-01) (627, 1.86245083808898925781e+00) (628, 1.13065826892852783203e+00) (629, 3.56458926200866699219e+00) (630, 4.34590454101562500000e+01) (631, 2.23781108856201171875e+01) (632, 9.09141601562500000000e+02) (633, 1.49556933593750000000e+03) (634, 1.49994689941406250000e+03) (635, 1.50000000000000000000e+03) (636, 1.50000000000000000000e+03) (637, 1.50000000000000000000e+03) (638, 1.50000000000000000000e+03) (639, 1.50000000000000000000e+03) (640, -1.50000000000000000000e+03) (641, -1.50000000000000000000e+03) (642, -7.53280639648437500000e+02) (643, -1.50000000000000000000e+03) (644, 1.50000000000000000000e+03) (645, 1.50000000000000000000e+03) (646, 1.50000000000000000000e+03) (647, 1.50000000000000000000e+03) (648, -2.57506347656250000000e+02) (649, 1.50000000000000000000e+03) (650, -5.51490661621093750000e+02) (651, -1.49018530273437500000e+03) (652, 1.49305944824218750000e+03) (653, 1.17825569152832031250e+02) (654, 2.10680246353149414062e+00) (655, 5.58441996574401855469e-01) (656, 5.44748187065124511719e-01) (657, -2.59347707033157348633e-01) (658, -9.90896377563476562500e+01) (659, -1.50000000000000000000e+03) (660, -1.60094451904296875000e+02) (661, -1.50000000000000000000e+03) (662, 1.45182373046875000000e+03) (663, 1.50000000000000000000e+03) (664, 1.50000000000000000000e+03) (665, 1.50000000000000000000e+03) (666, 1.50000000000000000000e+03) (667, 1.50000000000000000000e+03) (668, 1.50000000000000000000e+03) (669, 1.50000000000000000000e+03) (670, -1.47709252929687500000e+03) (671, 1.50000000000000000000e+03) (672, 1.50000000000000000000e+03) (673, 1.50000000000000000000e+03) (674, 1.50000000000000000000e+03) (675, 1.50000000000000000000e+03) (676, -1.50000000000000000000e+03) (677, -1.50000000000000000000e+03) (678, -1.50000000000000000000e+03) (679, -1.50000000000000000000e+03) (680, 1.30759851074218750000e+03) (681, 1.02390563964843750000e+03) (682, 1.49139465332031250000e+03) (683, 1.46099487304687500000e+03) (684, 1.43603820800781250000e+03) (685, -4.82923034667968750000e+02) (686, -1.44791711425781250000e+03) (687, -1.50000000000000000000e+03) (688, -1.50000000000000000000e+03) (689, -6.06750854492187500000e+02) (690, 1.50000000000000000000e+03) (691, 1.50000000000000000000e+03) (692, 1.50000000000000000000e+03) (693, 1.50000000000000000000e+03) (694, 1.50000000000000000000e+03) (695, 1.50000000000000000000e+03) (696, 1.50000000000000000000e+03) (697, 1.50000000000000000000e+03) (698, -1.28674072265625000000e+03) (699, 1.50000000000000000000e+03) (700, 1.50000000000000000000e+03) (701, 1.50000000000000000000e+03) (702, 1.50000000000000000000e+03) (703, -1.50000000000000000000e+03) (704, -1.50000000000000000000e+03) (705, -1.50000000000000000000e+03) (706, -1.50000000000000000000e+03) (707, -1.50000000000000000000e+03) (708, -1.50000000000000000000e+03) (709, -1.50000000000000000000e+03) (710, -1.50000000000000000000e+03) (711, -1.50000000000000000000e+03) (712, -1.50000000000000000000e+03) (713, -3.34389099121093750000e+02) (714, -8.43733764648437500000e+02) (715, -1.50000000000000000000e+03) (716, -9.56384704589843750000e+02) (717, -8.25986572265625000000e+02) (718, 1.50000000000000000000e+03) (719, 1.50000000000000000000e+03) (720, 1.50000000000000000000e+03) (721, 1.50000000000000000000e+03) (722, 1.50000000000000000000e+03) (723, 1.50000000000000000000e+03) (724, 1.50000000000000000000e+03) (725, 1.50000000000000000000e+03) (726, -1.44147900390625000000e+03) (727, 1.50000000000000000000e+03) (728, 1.50000000000000000000e+03) (729, 1.50000000000000000000e+03) (730, 1.50000000000000000000e+03) (731, 1.50000000000000000000e+03) (732, 1.46700000000000000000e+03) (733, -1.27412072753906250000e+03) (734, 1.46700000000000000000e+03) (735, -1.50000000000000000000e+03) (736, -1.50000000000000000000e+03) (737, -1.50000000000000000000e+03) (738, -1.50000000000000000000e+03) (739, -1.50000000000000000000e+03) (740, -1.50000000000000000000e+03) (741, -1.50000000000000000000e+03) (742, -1.50000000000000000000e+03) (743, -1.50000000000000000000e+03) (744, -1.50000000000000000000e+03) (745, -1.50000000000000000000e+03) (746, -1.50000000000000000000e+03) (747, -1.50000000000000000000e+03) (748, 1.50000000000000000000e+03) (749, -1.50000000000000000000e+03) (750, -1.50000000000000000000e+03) (751, -1.50000000000000000000e+03) (752, 1.50000000000000000000e+03) (753, -1.50000000000000000000e+03) (754, 1.50000000000000000000e+03) (755, 1.50000000000000000000e+03) (756, 1.50000000000000000000e+03) (757, 1.50000000000000000000e+03) (758, 1.50000000000000000000e+03) (759, 1.50000000000000000000e+03) (760, -1.50000000000000000000e+03) (761, -1.50000000000000000000e+03) (762, -1.50000000000000000000e+03) (763, -1.50000000000000000000e+03) (764, -1.50000000000000000000e+03) (765, -1.50000000000000000000e+03) (766, -1.50000000000000000000e+03) (767, -1.50000000000000000000e+03) (768, -1.50000000000000000000e+03) (769, -1.50000000000000000000e+03) (770, -1.50000000000000000000e+03) (771, -1.50000000000000000000e+03) (772, -1.50000000000000000000e+03) (773, -1.50000000000000000000e+03) (774, -1.50000000000000000000e+03) (775, -1.50000000000000000000e+03) (776, 1.50000000000000000000e+03) (777, -6.94406616210937500000e+02) (778, -1.50000000000000000000e+03) (779, -1.50000000000000000000e+03) (780, 1.50000000000000000000e+03) (781, 1.50000000000000000000e+03) (782, 1.50000000000000000000e+03) (783, 1.50000000000000000000e+03) (784, 7.96154737472534179688e-02) (0, 1.50000000000000000000e+03) (1, 1.50000000000000000000e+03) (2, 1.50000000000000000000e+03) (3, 1.50000000000000000000e+03) (4, 1.50000000000000000000e+03) (5, 1.50000000000000000000e+03) (6, 1.50000000000000000000e+03) (7, 1.50000000000000000000e+03) (8, 1.50000000000000000000e+03) (9, 1.50000000000000000000e+03) (10, 1.50000000000000000000e+03) (11, 1.50000000000000000000e+03) (12, -6.96203063964843750000e+02) (13, -1.50000000000000000000e+03) (14, -1.50000000000000000000e+03) (15, -1.50000000000000000000e+03) (16, 1.50000000000000000000e+03) (17, 1.50000000000000000000e+03) (18, 1.50000000000000000000e+03) (19, 1.50000000000000000000e+03) (20, 1.50000000000000000000e+03) (21, 1.50000000000000000000e+03) (22, 1.50000000000000000000e+03) (23, 1.50000000000000000000e+03) (24, 1.50000000000000000000e+03) (25, 1.50000000000000000000e+03) (26, 1.50000000000000000000e+03) (27, 1.50000000000000000000e+03) (28, 1.50000000000000000000e+03) (29, 1.50000000000000000000e+03) (30, 1.50000000000000000000e+03) (31, 1.50000000000000000000e+03) (32, -1.50000000000000000000e+03) (33, -1.27463500976562500000e+03) (34, -8.43991577148437500000e+02) (35, -9.62406372070312500000e+02) (36, 1.50000000000000000000e+03) (37, -1.38151245117187500000e+03) (38, -1.47500000000000000000e+03) (39, -1.44583996582031250000e+03) (40, -1.50000000000000000000e+03) (41, -1.50000000000000000000e+03) (42, 1.40970202636718750000e+03) (43, 3.84411804199218750000e+02) (44, -1.50000000000000000000e+03) (45, -1.50000000000000000000e+03) (46, -1.50000000000000000000e+03) (47, -1.50000000000000000000e+03) (48, -1.38742565917968750000e+03) (49, 1.50000000000000000000e+03) (50, -1.44202563476562500000e+03) (51, -1.50000000000000000000e+03) (52, 1.50000000000000000000e+03) (53, 1.50000000000000000000e+03) (54, 1.50000000000000000000e+03) (55, 1.50000000000000000000e+03) (56, 1.50000000000000000000e+03) (57, 1.50000000000000000000e+03) (58, -1.50000000000000000000e+03) (59, -1.47500000000000000000e+03) (60, 1.35493212890625000000e+03) (61, -4.82904296875000000000e+02) (62, -3.18801269531250000000e+02) (63, -1.43339172363281250000e+03) (64, -6.98690795898437500000e+02) (65, -1.49676000976562500000e+03) (66, -1.47500000000000000000e+03) (67, -1.43330395507812500000e+03) (68, -1.06637182617187500000e+03) (69, 1.50000000000000000000e+03) (70, 1.50000000000000000000e+03) (71, 1.26266052246093750000e+03) (72, 1.40085571289062500000e+02) (73, -9.31600097656250000000e+02) (74, -1.28896679687500000000e+03) (75, -1.50000000000000000000e+03) (76, -1.50000000000000000000e+03) (77, -1.50000000000000000000e+03) (78, -1.50000000000000000000e+03) (79, -1.50000000000000000000e+03) (80, -1.50000000000000000000e+03) (81, -1.36096362304687500000e+03) (82, 1.50000000000000000000e+03) (83, 1.50000000000000000000e+03) (84, 1.50000000000000000000e+03) (85, 1.50000000000000000000e+03) (86, -1.50000000000000000000e+03) (87, -1.47500000000000000000e+03) (88, -6.91739868164062500000e+02) (89, -1.50000000000000000000e+03) (90, 2.82461395263671875000e+02) (91, -1.25648156738281250000e+03) (92, -2.08828125000000000000e+02) (93, -3.15737548828125000000e+02) (94, 1.00519903564453125000e+03) (95, 2.48960098266601562500e+02) (96, 4.72605346679687500000e+02) (97, 8.65371154785156250000e+02) (98, 1.03282958984375000000e+03) (99, 1.50000000000000000000e+03) (100, 1.50000000000000000000e+03) (101, 9.81171203613281250000e+02) (102, 1.88682800292968750000e+02) (103, 1.21893603515625000000e+03) (104, -5.45202697753906250000e+02) (105, -7.45138610839843750000e+02) (106, -6.77138610839843750000e+02) (107, 1.50000000000000000000e+03) (108, -9.51107055664062500000e+02) (109, -1.50000000000000000000e+03) (110, -3.87245605468750000000e+02) (111, 1.50000000000000000000e+03) (112, 1.50000000000000000000e+03) (113, 7.56600097656250000000e+02) (114, -1.16080004882812500000e+03) (115, -1.50000000000000000000e+03) (116, -1.50000000000000000000e+03) (117, -1.36940002441406250000e+03) (118, 1.44491674804687500000e+03) (119, 1.50000000000000000000e+03) (120, -1.15430908203125000000e+03) (121, -1.50000000000000000000e+03) (122, -1.49720092773437500000e+03) (123, 4.94845199584960937500e+01) (124, -1.27924670410156250000e+03) (125, -3.06125701904296875000e+02) (126, -3.30444763183593750000e+02) (127, -5.92382202148437500000e+01) (128, -1.54810438156127929688e+01) (129, 2.39080548286437988281e+00) (130, 6.77601623535156250000e+01) (131, 9.83335418701171875000e+01) (132, -7.50704406738281250000e+02) (133, 1.48050292968750000000e+03) (134, 1.49996618652343750000e+03) (135, 1.50000000000000000000e+03) (136, 1.50000000000000000000e+03) (137, 1.50000000000000000000e+03) (138, 1.84199951171875000000e+02) (139, -1.50000000000000000000e+03) (140, 1.50000000000000000000e+03) (141, 1.50000000000000000000e+03) (142, -1.50000000000000000000e+03) (143, -1.50000000000000000000e+03) (144, -1.50000000000000000000e+03) (145, -1.49100000000000000000e+03) (146, -1.32263073730468750000e+03) (147, -1.46723999023437500000e+03) (148, -1.50000000000000000000e+03) (149, -1.50000000000000000000e+03) (150, -1.50000000000000000000e+03) (151, -1.50000000000000000000e+03) (152, -1.49459997558593750000e+03) (153, -2.46804504394531250000e+01) (154, -4.49219989776611328125e+00) (155, -2.65071702003479003906e+00) (156, -4.17742042541503906250e+01) (157, -1.05272956848144531250e+02) (158, -1.51469020843505859375e+01) (159, -4.44013786315917968750e+00) (160, 1.73018676757812500000e+02) (161, 1.50000000000000000000e+03) (162, 1.50000000000000000000e+03) (163, 1.50000000000000000000e+03) (164, 1.50000000000000000000e+03) (165, 1.50000000000000000000e+03) (166, 1.50000000000000000000e+03) (167, 1.50000000000000000000e+03) (168, 1.50000000000000000000e+03) (169, -1.50000000000000000000e+03) (170, -1.04339990234375000000e+03) (171, -1.50000000000000000000e+03) (172, -1.50000000000000000000e+03) (173, 8.77118286132812500000e+02) (174, 5.18877014160156250000e+02) (175, -1.50000000000000000000e+03) (176, -1.50000000000000000000e+03) (177, -1.50000000000000000000e+03) (178, -1.34624340820312500000e+03) (179, -1.49676000976562500000e+03) (180, -1.49193859863281250000e+03) (181, -4.47670837402343750000e+02) (182, -3.84500789642333984375e+00) (183, -1.29692993164062500000e+01) (184, -1.49950769042968750000e+03) (185, -1.50000000000000000000e+03) (186, -1.50000000000000000000e+03) (187, -2.33800216674804687500e+02) (188, 1.50876832008361816406e+00) (189, 1.50000000000000000000e+03) (190, 1.50000000000000000000e+03) (191, 1.50000000000000000000e+03) (192, 1.50000000000000000000e+03) (193, 1.50000000000000000000e+03) (194, 1.50000000000000000000e+03) (195, 1.50000000000000000000e+03) (196, 1.50000000000000000000e+03) (197, -1.50000000000000000000e+03) (198, 1.50000000000000000000e+03) (199, 1.50000000000000000000e+03) (200, -7.44101745605468750000e+02) (201, -2.80923156738281250000e+02) (202, 1.38509179687500000000e+03) (203, 1.48805566406250000000e+03) (204, 1.49505029296875000000e+03) (205, 1.48398864746093750000e+03) (206, 3.13419860839843750000e+02) (207, 3.95473027229309082031e+00) (208, 4.47307795286178588867e-01) (209, 3.87183338403701782227e-01) (210, 4.13938999176025390625e-01) (211, -6.46491795778274536133e-02) (212, -1.49793359375000000000e+03) (213, -1.49712145996093750000e+03) (214, -6.65145874023437500000e+02) (215, -1.33067286014556884766e+00) (216, 1.22062473297119140625e+01) (217, 1.35150463867187500000e+03) (218, 1.49127050781250000000e+03) (219, 1.50000000000000000000e+03) (220, 1.50000000000000000000e+03) (221, 1.50000000000000000000e+03) (222, 1.50000000000000000000e+03) (223, 1.50000000000000000000e+03) (224, 1.50000000000000000000e+03) (225, -4.28738647460937500000e+02) (226, 1.50000000000000000000e+03) (227, 1.50000000000000000000e+03) (228, 1.50000000000000000000e+03) (229, 1.44438818359375000000e+03) (230, 1.42415332031250000000e+03) (231, 9.21065307617187500000e+02) (232, 1.48565917968750000000e+03) (233, 1.49977868652343750000e+03) (234, 1.48474670410156250000e+03) (235, 1.50000000000000000000e+03) (236, 4.09969282150268554688e+00) (237, 5.01819252967834472656e-01) (238, 4.38323140144348144531e-01) (239, 4.69519078731536865234e-01) (240, 2.80864745378494262695e-01) (241, 1.85208782553672790527e-01) (242, 3.34927856922149658203e-01) (243, 1.75755620002746582031e+00) (244, 4.46357498168945312500e+01) (245, 1.48415380859375000000e+03) (246, 1.07502954101562500000e+03) (247, 1.40527551269531250000e+03) (248, 1.50000000000000000000e+03) (249, 1.50000000000000000000e+03) (250, 1.50000000000000000000e+03) (251, 1.50000000000000000000e+03) (252, 1.45687207031250000000e+03) (253, 1.50000000000000000000e+03) (254, 1.50000000000000000000e+03) (255, 1.50000000000000000000e+03) (256, 1.50000000000000000000e+03) (257, 1.44280859375000000000e+03) (258, 1.40527551269531250000e+03) (259, 1.50000000000000000000e+03) (260, 1.50000000000000000000e+03) (261, 1.50000000000000000000e+03) (262, 1.50000000000000000000e+03) (263, 1.50000000000000000000e+03) (264, 1.48771362304687500000e+02) (265, 9.75145797729492187500e+01) (266, 1.49261706542968750000e+03) (267, 7.00178956985473632812e+00) (268, 9.34979677200317382812e-01) (269, 3.66419047117233276367e-01) (270, 2.14155364036560058594e+00) (271, 3.43644828796386718750e+01) (272, 1.48162988281250000000e+03) (273, 1.48950976562500000000e+03) (274, 4.17142333984375000000e+01) (275, 1.09427661132812500000e+03) (276, 1.50000000000000000000e+03) (277, 1.50000000000000000000e+03) (278, 1.50000000000000000000e+03) (279, 1.50000000000000000000e+03) (280, 1.50000000000000000000e+03) (281, 1.50000000000000000000e+03) (282, 1.50000000000000000000e+03) (283, 1.50000000000000000000e+03) (284, 1.50000000000000000000e+03) (285, 1.47682849121093750000e+03) (286, 1.47904956054687500000e+03) (287, 1.50000000000000000000e+03) (288, 1.50000000000000000000e+03) (289, 1.50000000000000000000e+03) (290, 5.46631042480468750000e+02) (291, 2.37781085968017578125e+01) (292, 1.34584200382232666016e+00) (293, 2.50771465301513671875e+01) (294, 1.41902783203125000000e+03) (295, 1.35148119926452636719e+00) (296, -8.61794185638427734375e+00) (297, -1.32066130638122558594e+00) (298, 1.19972097873687744141e+00) (299, 1.49896801757812500000e+03) (300, 1.49276501464843750000e+03) (301, 1.23748022460937500000e+03) (302, 8.48277587890625000000e+02) (303, -1.49501440429687500000e+03) (304, -1.50000000000000000000e+03) (305, 1.50000000000000000000e+03) (306, 1.50000000000000000000e+03) (307, 8.93738647460937500000e+02) (308, 1.50000000000000000000e+03) (309, 1.50000000000000000000e+03) (310, 1.50000000000000000000e+03) (311, 1.50000000000000000000e+03) (312, 1.50000000000000000000e+03) (313, 8.94644653320312500000e+02) (314, 1.49127050781250000000e+03) (315, 1.50000000000000000000e+03) (316, 1.49459643554687500000e+03) (317, 2.74526702880859375000e+02) (318, 2.97193450927734375000e+02) (319, 2.07335891723632812500e+01) (320, 5.57630920410156250000e+00) (321, 6.25223517417907714844e-01) (322, 6.91225481033325195312e+00) (323, -7.12248146533966064453e-01) (324, -1.05097646713256835938e+01) (325, -6.66155958175659179688e+00) (326, 3.58053207397460937500e-01) (327, 1.49668847656250000000e+03) (328, 1.49189831542968750000e+03) (329, 1.30182836914062500000e+03) (330, -8.18568481445312500000e+02) (331, 1.09113342285156250000e+03) (332, -1.39812524414062500000e+03) (333, 1.50000000000000000000e+03) (334, 1.50000000000000000000e+03) (335, -4.15338684082031250000e+02) (336, 1.50000000000000000000e+03) (337, 1.50000000000000000000e+03) (338, 1.50000000000000000000e+03) (339, 1.50000000000000000000e+03) (340, 1.47322460937500000000e+03) (341, 1.44438818359375000000e+03) (342, 1.45626440429687500000e+03) (343, 1.43820275878906250000e+03) (344, 1.50000000000000000000e+03) (345, 6.64462745189666748047e-01) (346, 2.54990901947021484375e+01) (347, 1.26655006408691406250e+01) (348, 2.34693527221679687500e+00) (349, -1.14049363136291503906e+00) (350, -1.84022456407546997070e-01) (351, -1.44491870117187500000e+03) (352, -1.20576839447021484375e+01) (353, -1.57906570434570312500e+01) (354, 5.65925369262695312500e+01) (355, 1.49723046875000000000e+03) (356, 1.50000000000000000000e+03) (357, 1.40110119628906250000e+03) (358, 3.39587646484375000000e+02) (359, -4.08286682128906250000e+02) (360, -1.50000000000000000000e+03) (361, -1.50000000000000000000e+03) (362, 1.50000000000000000000e+03) (363, 1.50000000000000000000e+03) (364, 5.16118164062500000000e+01) (365, 1.50000000000000000000e+03) (366, 1.50000000000000000000e+03) (367, 1.50000000000000000000e+03) (368, 1.49919116210937500000e+03) (369, 1.49919836425781250000e+03) (370, 1.93284511566162109375e+01) (371, 2.77521911621093750000e+02) (372, -1.06701507568359375000e+02) (373, -1.55579671263694763184e-01) (374, 9.56330120563507080078e-01) (375, 1.94434595108032226562e+00) (376, -8.46380538940429687500e+01) (377, 3.28362524509429931641e-01) (378, -5.35930013656616210938e+00) (379, -2.97977657318115234375e+01) (380, -1.50000000000000000000e+03) (381, -1.29276354980468750000e+03) (382, -5.10937622070312500000e+02) (383, 1.28502075195312500000e+03) (384, 1.50000000000000000000e+03) (385, 1.28798583984375000000e+03) (386, 1.48064514160156250000e+03) (387, -1.12803100585937500000e+03) (388, -1.50000000000000000000e+03) (389, -1.50000000000000000000e+03) (390, 1.50000000000000000000e+03) (391, 1.50000000000000000000e+03) (392, 1.50000000000000000000e+03) (393, 1.50000000000000000000e+03) (394, 1.50000000000000000000e+03) (395, 1.48200000000000000000e+03) (396, 8.55930297851562500000e+02) (397, 1.40119421386718750000e+03) (398, 1.49822180175781250000e+03) (399, 5.62101562500000000000e+02) (400, -1.07016304016113281250e+02) (401, -8.48426342010498046875e+00) (402, -1.33383264160156250000e+03) (403, -2.17186145782470703125e+01) (404, -7.42082214355468750000e+01) (405, 4.12628591060638427734e-01) (406, -1.17399239540100097656e+00) (407, -4.52035760879516601562e+00) (408, -6.33994506835937500000e+02) (409, -1.02320812988281250000e+03) (410, -7.26060424804687500000e+02) (411, 1.07787377929687500000e+03) (412, 1.21002441406250000000e+03) (413, 9.82617431640625000000e+02) (414, 1.41100427246093750000e+03) (415, -1.50000000000000000000e+03) (416, -1.50000000000000000000e+03) (417, -1.50000000000000000000e+03) (418, -2.93726440429687500000e+02) (419, 1.50000000000000000000e+03) (420, 1.50000000000000000000e+03) (421, -1.15919995117187500000e+03) (422, -1.50000000000000000000e+03) (423, -1.50000000000000000000e+03) (424, 1.50000000000000000000e+03) (425, 6.42981933593750000000e+02) (426, 1.49967785644531250000e+03) (427, 1.49994189453125000000e+03) (428, 4.79685878753662109375e+00) (429, -1.01494588851928710938e+01) (430, -1.78670940399169921875e+01) (431, -3.34724962711334228516e-01) (432, 4.79537695646286010742e-01) (433, 4.67952370643615722656e-01) (434, 4.47973698377609252930e-01) (435, -1.74120593070983886719e+00) (436, -4.02506835937500000000e+02) (437, -5.21704467773437500000e+02) (438, -3.14476409912109375000e+02) (439, 1.38698254394531250000e+03) (440, 1.49877026367187500000e+03) (441, 1.49948583984375000000e+03) (442, 1.49841601562500000000e+03) (443, -1.01899798583984375000e+03) (444, -1.50000000000000000000e+03) (445, -1.50000000000000000000e+03) (446, -1.20155688476562500000e+03) (447, -1.50000000000000000000e+03) (448, 1.00310131835937500000e+03) (449, -1.15919995117187500000e+03) (450, -1.50000000000000000000e+03) (451, -1.50000000000000000000e+03) (452, 1.14396826171875000000e+03) (453, -1.80254028320312500000e+02) (454, -2.79242614746093750000e+02) (455, 8.33534057617187500000e+02) (456, 1.36973254394531250000e+03) (457, 1.96146798133850097656e+00) (458, 1.68403816223144531250e+01) (459, 2.96940946578979492188e+00) (460, 3.01457262039184570312e+00) (461, 1.49998352050781250000e+03) (462, 1.49998901367187500000e+03) (463, 1.49996630859375000000e+03) (464, 1.49675854492187500000e+03) (465, 2.23195800781250000000e+02) (466, -9.96723144531250000000e+02) (467, 8.27715454101562500000e+02) (468, 1.48532971191406250000e+03) (469, 1.49634118652343750000e+03) (470, 1.49810766601562500000e+03) (471, 9.25952636718750000000e+02) (472, -6.39463928222656250000e+02) (473, -1.50000000000000000000e+03) (474, -1.50000000000000000000e+03) (475, -1.50000000000000000000e+03) (476, 1.50000000000000000000e+03) (477, -8.74772415161132812500e+01) (478, -1.50000000000000000000e+03) (479, -1.50000000000000000000e+03) (480, -5.45202697753906250000e+02) (481, -5.45202697753906250000e+02) (482, 1.04725708007812500000e+02) (483, 1.04725708007812500000e+02) (484, 7.90484191894531250000e+02) (485, 1.50000000000000000000e+03) (486, 1.50000000000000000000e+03) (487, 4.23326644897460937500e+01) (488, 1.39309606933593750000e+03) (489, 9.20614318847656250000e+02) (490, 1.40422729492187500000e+03) (491, 1.49997888183593750000e+03) (492, 1.49999169921875000000e+03) (493, 1.48631872558593750000e+03) (494, 1.43378503417968750000e+03) (495, 8.12317504882812500000e+02) (496, -7.40955810546875000000e+01) (497, 1.49133728027343750000e+03) (498, 1.37557189941406250000e+03) (499, 1.26970153808593750000e+03) (500, -2.82828125000000000000e+02) (501, -1.50000000000000000000e+03) (502, -1.25648156738281250000e+03) (503, -1.48234948730468750000e+03) (504, 3.34199951171875000000e+02) (505, 1.27500000000000000000e+03) (506, -1.50000000000000000000e+03) (507, -1.50000000000000000000e+03) (508, -4.66020507812500000000e+02) (509, -8.09516174316406250000e+02) (510, -2.24551269531250000000e+02) (511, -3.07662780761718750000e+02) (512, 1.31785424804687500000e+03) (513, 1.50000000000000000000e+03) (514, 1.50000000000000000000e+03) (515, 1.50000000000000000000e+03) (516, 1.49253674316406250000e+03) (517, 1.46654174804687500000e+03) (518, 1.48166552734375000000e+03) (519, 1.49998449707031250000e+03) (520, 5.34021606445312500000e+02) (521, 1.49997961425781250000e+03) (522, 1.49970532226562500000e+03) (523, 1.11890869140625000000e+03) (524, 1.49977624511718750000e+03) (525, 1.21811511230468750000e+03) (526, 1.42980505371093750000e+03) (527, 5.28745544433593750000e+02) (528, -3.51308898925781250000e+02) (529, -1.50000000000000000000e+03) (530, 1.50000000000000000000e+03) (531, 8.17143188476562500000e+02) (532, -1.50000000000000000000e+03) (533, 1.50000000000000000000e+03) (534, -1.50000000000000000000e+03) (535, -1.50000000000000000000e+03) (536, -1.09064062500000000000e+03) (537, -1.14068164062500000000e+03) (538, -5.03299133300781250000e+02) (539, 6.94475097656250000000e+01) (540, 1.48021813964843750000e+03) (541, 1.23339978027343750000e+03) (542, 1.37615026855468750000e+03) (543, 1.50000000000000000000e+03) (544, 1.50000000000000000000e+03) (545, 1.48554736328125000000e+03) (546, 1.41729125976562500000e+03) (547, 3.09172637939453125000e+02) (548, 7.29506635665893554688e+00) (549, 7.78474664688110351562e+00) (550, 1.64221229553222656250e+01) (551, 3.56045257568359375000e+02) (552, 1.56162481307983398438e+01) (553, 6.83072998046875000000e+02) (554, -1.19063244628906250000e+03) (555, 4.66447753906250000000e+01) (556, -3.12938598632812500000e+02) (557, 4.95260314941406250000e+02) (558, -6.15230651855468750000e+02) (559, 1.04080004882812500000e+03) (560, 1.50000000000000000000e+03) (561, -4.28738647460937500000e+02) (562, -1.50000000000000000000e+03) (563, -1.50000000000000000000e+03) (564, -1.50000000000000000000e+03) (565, 1.31957165527343750000e+03) (566, 1.40742272949218750000e+03) (567, 1.49877026367187500000e+03) (568, 1.49868298339843750000e+03) (569, 1.33634497070312500000e+03) (570, 1.49890576171875000000e+03) (571, 1.49134985351562500000e+03) (572, 9.72062835693359375000e+01) (573, 1.90297679901123046875e+01) (574, 3.67739534378051757812e+00) (575, -3.19536298513412475586e-01) (576, 3.93723011016845703125e-01) (577, 1.43103194236755371094e+00) (578, 1.76219904422760009766e+00) (579, 1.00153267383575439453e+00) (580, -2.19301147460937500000e+02) (581, -1.37401293945312500000e+03) (582, 1.12450927734375000000e+03) (583, -5.26851135253906250000e+02) (584, -8.87603027343750000000e+02) (585, 1.35911779785156250000e+03) (586, -1.39953747558593750000e+03) (587, -1.42288513183593750000e+03) (588, 1.19774694824218750000e+03) (589, -6.59199951171875000000e+02) (590, -1.50000000000000000000e+03) (591, -1.50000000000000000000e+03) (592, -1.50000000000000000000e+03) (593, -1.50000000000000000000e+03) (594, -1.38246627807617187500e+02) (595, 1.42634716796875000000e+03) (596, 1.40915649414062500000e+03) (597, 1.13062268066406250000e+03) (598, 1.50122034549713134766e+00) (599, 1.79702687263488769531e+00) (600, 4.95292752981185913086e-01) (601, 2.63524085283279418945e-01) (602, 3.19431662559509277344e-01) (603, -9.58114862442016601562e-02) (604, -6.30817604064941406250e+00) (605, 2.02049776911735534668e-01) (606, -7.95758628845214843750e+00) (607, -1.47673120117187500000e+03) (608, -9.37586730957031250000e+02) (609, -1.35843884277343750000e+03) (610, 9.67043945312500000000e+02) (611, -2.91977539062500000000e+02) (612, 1.64646469116210937500e+02) (613, 1.50000000000000000000e+03) (614, -1.50000000000000000000e+03) (615, 1.50000000000000000000e+03) (616, 1.19774694824218750000e+03) (617, -5.18399902343750000000e+02) (618, -1.50000000000000000000e+03) (619, -1.50000000000000000000e+03) (620, -1.50000000000000000000e+03) (621, -1.50000000000000000000e+03) (622, -1.50000000000000000000e+03) (623, -1.08633422851562500000e+03) (624, -8.36873107910156250000e+02) (625, -1.50000000000000000000e+03) (626, -1.49676000976562500000e+03) (627, -3.67674827575683593750e+01) (628, -4.68892936706542968750e+01) (629, -5.36497993469238281250e+01) (630, -3.39051246643066406250e+01) (631, -6.91056976318359375000e+01) (632, -1.78238220214843750000e+01) (633, -4.74631996154785156250e+01) (634, -1.44502258300781250000e+03) (635, 2.32261291503906250000e+02) (636, -4.73792724609375000000e+02) (637, -1.49350073242187500000e+03) (638, -5.78675537109375000000e+01) (639, -3.04937500000000000000e+02) (640, 1.50000000000000000000e+03) (641, 1.50000000000000000000e+03) (642, 7.93419189453125000000e+01) (643, 1.50000000000000000000e+03) (644, 1.50000000000000000000e+03) (645, 1.50000000000000000000e+03) (646, -1.50000000000000000000e+03) (647, -1.50000000000000000000e+03) (648, -1.50000000000000000000e+03) (649, -1.50000000000000000000e+03) (650, -1.50000000000000000000e+03) (651, -1.50000000000000000000e+03) (652, -1.50000000000000000000e+03) (653, -1.49906396484375000000e+03) (654, -1.17683618164062500000e+03) (655, -1.67586502075195312500e+02) (656, -1.86924407958984375000e+02) (657, -4.93976478576660156250e+01) (658, -9.97980213165283203125e+00) (659, -1.59369506835937500000e+01) (660, -2.69847679138183593750e+01) (661, -3.29178802490234375000e+02) (662, -1.74182357788085937500e+02) (663, -3.90657615661621093750e+01) (664, -4.21393280029296875000e+02) (665, -5.35852294921875000000e+02) (666, -1.50000000000000000000e+03) (667, -1.86757995605468750000e+02) (668, 1.50000000000000000000e+03) (669, 1.50000000000000000000e+03) (670, 1.50000000000000000000e+03) (671, 1.50000000000000000000e+03) (672, 1.50000000000000000000e+03) (673, 1.50000000000000000000e+03) (674, -1.50000000000000000000e+03) (675, -1.50000000000000000000e+03) (676, -1.36789538574218750000e+03) (677, -1.50000000000000000000e+03) (678, -1.22041662597656250000e+03) (679, -3.49444213867187500000e+02) (680, 1.48646972656250000000e+03) (681, 7.33602106571197509766e-01) (682, 8.08976233005523681641e-01) (683, 3.16854298114776611328e-01) (684, 1.09430745244026184082e-01) (685, -5.23090511560440063477e-02) (686, -3.34371089935302734375e+00) (687, -8.33473587036132812500e+01) (688, -8.31087646484375000000e+02) (689, 1.23825964355468750000e+03) (690, -1.30902502441406250000e+03) (691, -4.68577301025390625000e+02) (692, -1.07698107910156250000e+03) (693, -1.50000000000000000000e+03) (694, 2.81571777343750000000e+02) (695, 1.50000000000000000000e+03) (696, -1.42406298828125000000e+03) (697, -1.15629199218750000000e+03) (698, -1.28674072265625000000e+03) (699, 1.50000000000000000000e+03) (700, 1.50000000000000000000e+03) (701, 1.50000000000000000000e+03) (702, -1.50000000000000000000e+03) (703, 1.50000000000000000000e+03) (704, 1.50000000000000000000e+03) (705, 1.05521777343750000000e+03) (706, 9.98996826171875000000e+02) (707, 8.16039428710937500000e+02) (708, 9.40136108398437500000e+02) (709, 1.33290454101562500000e+03) (710, 1.50000000000000000000e+03) (711, 1.50000000000000000000e+03) (712, 1.50000000000000000000e+03) (713, -2.04456512451171875000e+02) (714, -1.35172753906250000000e+03) (715, 4.68972167968750000000e+01) (716, -1.50000000000000000000e+03) (717, -1.49154003906250000000e+03) (718, -1.37007714843750000000e+03) (719, 4.10766906738281250000e+02) (720, -7.87415344238281250000e+02) (721, 1.50000000000000000000e+03) (722, 1.50000000000000000000e+03) (723, 1.50000000000000000000e+03) (724, -1.17918200683593750000e+03) (725, 1.50000000000000000000e+03) (726, 1.50000000000000000000e+03) (727, 1.50000000000000000000e+03) (728, 1.50000000000000000000e+03) (729, 1.50000000000000000000e+03) (730, 1.50000000000000000000e+03) (731, -1.17803271484375000000e+03) (732, -1.50000000000000000000e+03) (733, 1.50000000000000000000e+03) (734, 1.50000000000000000000e+03) (735, -5.45202697753906250000e+02) (736, 9.58251266479492187500e+01) (737, 1.29352355957031250000e+02) (738, 1.50000000000000000000e+03) (739, 1.50000000000000000000e+03) (740, 1.43478613281250000000e+03) (741, 1.47924328613281250000e+03) (742, 1.46725061035156250000e+03) (743, 1.35031677246093750000e+03) (744, 1.12794250488281250000e+02) (745, 5.70560546875000000000e+02) (746, 1.43789367675781250000e+03) (747, 1.44438818359375000000e+03) (748, -1.50000000000000000000e+03) (749, 1.50000000000000000000e+03) (750, 1.50000000000000000000e+03) (751, 1.50000000000000000000e+03) (752, -1.44824328613281250000e+03) (753, 1.50000000000000000000e+03) (754, 1.50000000000000000000e+03) (755, 1.50000000000000000000e+03) (756, 1.50000000000000000000e+03) (757, 1.50000000000000000000e+03) (758, 1.50000000000000000000e+03) (759, 1.50000000000000000000e+03) (760, 8.65017089843750000000e+02) (761, 8.33096191406250000000e+02) (762, -2.31773204803466796875e+01) (763, 1.50000000000000000000e+03) (764, -1.50000000000000000000e+03) (765, -5.68457214355468750000e+02) (766, 3.23018951416015625000e+02) (767, 8.43859252929687500000e+01) (768, -7.45138610839843750000e+02) (769, 1.50000000000000000000e+03) (770, 1.50000000000000000000e+03) (771, 1.50000000000000000000e+03) (772, 1.50000000000000000000e+03) (773, 1.50000000000000000000e+03) (774, 1.50000000000000000000e+03) (775, 1.50000000000000000000e+03) (776, 1.13419995117187500000e+03) (777, 1.50000000000000000000e+03) (778, 1.50000000000000000000e+03) (779, 1.50000000000000000000e+03) (780, 1.50000000000000000000e+03) (781, 1.50000000000000000000e+03) (782, 1.50000000000000000000e+03) (783, 1.50000000000000000000e+03) (784, 3.61716866493225097656e-01) (0, 1.50000000000000000000e+03) (1, 1.50000000000000000000e+03) (2, 1.50000000000000000000e+03) (3, 1.50000000000000000000e+03) (4, 1.50000000000000000000e+03) (5, 1.50000000000000000000e+03) (6, 1.50000000000000000000e+03) (7, 1.50000000000000000000e+03) (8, 1.50000000000000000000e+03) (9, 1.50000000000000000000e+03) (10, 1.50000000000000000000e+03) (11, 1.50000000000000000000e+03) (12, 2.72194519042968750000e+02) (13, 1.50000000000000000000e+03) (14, 1.50000000000000000000e+03) (15, 1.50000000000000000000e+03) (16, 1.50000000000000000000e+03) (17, 1.50000000000000000000e+03) (18, 1.50000000000000000000e+03) (19, 1.50000000000000000000e+03) (20, 1.50000000000000000000e+03) (21, 1.50000000000000000000e+03) (22, 1.50000000000000000000e+03) (23, 1.50000000000000000000e+03) (24, 1.50000000000000000000e+03) (25, 1.50000000000000000000e+03) (26, 1.50000000000000000000e+03) (27, 1.50000000000000000000e+03) (28, 1.50000000000000000000e+03) (29, 1.50000000000000000000e+03) (30, 1.50000000000000000000e+03) (31, 1.50000000000000000000e+03) (32, -1.43278234863281250000e+03) (33, -1.31328430175781250000e+03) (34, -1.50000000000000000000e+03) (35, -1.50000000000000000000e+03) (36, -1.43900000000000000000e+03) (37, -1.43900000000000000000e+03) (38, 1.50000000000000000000e+03) (39, -4.38331848144531250000e+02) (40, -1.50000000000000000000e+03) (41, -1.50000000000000000000e+03) (42, 1.50000000000000000000e+03) (43, 1.50000000000000000000e+03) (44, 1.50000000000000000000e+03) (45, -1.50000000000000000000e+03) (46, -1.26580004882812500000e+03) (47, -1.31580004882812500000e+03) (48, -1.50000000000000000000e+03) (49, -1.50000000000000000000e+03) (50, -1.21580004882812500000e+03) (51, 6.87404098510742187500e+01) (52, 1.50000000000000000000e+03) (53, 1.50000000000000000000e+03) (54, 1.50000000000000000000e+03) (55, 1.50000000000000000000e+03) (56, 1.50000000000000000000e+03) (57, 1.50000000000000000000e+03) (58, -8.81600097656250000000e+02) (59, 7.72777404785156250000e+02) (60, -1.50000000000000000000e+03) (61, 1.50000000000000000000e+03) (62, -1.50000000000000000000e+03) (63, -1.50000000000000000000e+03) (64, -1.47500000000000000000e+03) (65, 1.50000000000000000000e+03) (66, 1.33427880859375000000e+03) (67, 1.50000000000000000000e+03) (68, 1.47113647460937500000e+01) (69, -2.42861267089843750000e+02) (70, 1.50000000000000000000e+03) (71, 1.50000000000000000000e+03) (72, 1.50000000000000000000e+03) (73, 1.50000000000000000000e+03) (74, 1.44273486328125000000e+03) (75, 1.50000000000000000000e+03) (76, 1.50000000000000000000e+03) (77, 1.50000000000000000000e+03) (78, 1.50000000000000000000e+03) (79, 1.50000000000000000000e+03) (80, 1.50000000000000000000e+03) (81, 1.50000000000000000000e+03) (82, 1.50000000000000000000e+03) (83, 1.50000000000000000000e+03) (84, 1.50000000000000000000e+03) (85, 1.50000000000000000000e+03) (86, -1.50000000000000000000e+03) (87, 1.50000000000000000000e+03) (88, 1.50000000000000000000e+03) (89, 1.50000000000000000000e+03) (90, 5.44182556152343750000e+02) (91, -7.58664489746093750000e+02) (92, -1.41772631835937500000e+03) (93, -1.23823608398437500000e+02) (94, -1.50000000000000000000e+03) (95, -1.50000000000000000000e+03) (96, -1.50000000000000000000e+03) (97, -1.40163964843750000000e+03) (98, -1.50000000000000000000e+03) (99, -1.50000000000000000000e+03) (100, -1.50000000000000000000e+03) (101, -1.50000000000000000000e+03) (102, -1.50000000000000000000e+03) (103, -1.50000000000000000000e+03) (104, -1.40024645996093750000e+03) (105, -1.50000000000000000000e+03) (106, -1.50000000000000000000e+03) (107, 1.50000000000000000000e+03) (108, 1.50000000000000000000e+03) (109, 1.50000000000000000000e+03) (110, -1.50000000000000000000e+03) (111, 1.50000000000000000000e+03) (112, 1.50000000000000000000e+03) (113, 3.25000061035156250000e+02) (114, 1.50000000000000000000e+03) (115, 1.50000000000000000000e+03) (116, 1.50000000000000000000e+03) (117, 1.50000000000000000000e+03) (118, 1.37022497558593750000e+03) (119, 1.50000000000000000000e+03) (120, 1.50000000000000000000e+03) (121, 1.50000000000000000000e+03) (122, 1.50000000000000000000e+03) (123, 1.50000000000000000000e+03) (124, 1.50000000000000000000e+03) (125, -3.05828619003295898438e+00) (126, 8.00304934382438659668e-02) (127, 4.07690793275833129883e-01) (128, 8.41537475585937500000e+01) (129, 5.21267356872558593750e+01) (130, 1.45328491210937500000e+03) (131, -2.77067016601562500000e+02) (132, 1.17766162109375000000e+03) (133, -6.16531860351562500000e+02) (134, -5.86289978027343750000e+01) (135, -1.50000000000000000000e+03) (136, -1.50000000000000000000e+03) (137, 1.50000000000000000000e+03) (138, 1.50000000000000000000e+03) (139, 1.50000000000000000000e+03) (140, 1.50000000000000000000e+03) (141, 1.50000000000000000000e+03) (142, 1.50000000000000000000e+03) (143, 1.50000000000000000000e+03) (144, 1.50000000000000000000e+03) (145, 1.50000000000000000000e+03) (146, 1.50000000000000000000e+03) (147, 1.50000000000000000000e+03) (148, 1.50000000000000000000e+03) (149, 1.50000000000000000000e+03) (150, 1.50000000000000000000e+03) (151, 1.50000000000000000000e+03) (152, 1.50000000000000000000e+03) (153, 1.50000000000000000000e+03) (154, 1.47623999023437500000e+03) (155, 1.17933666992187500000e+03) (156, 1.49836206054687500000e+03) (157, -2.05118732452392578125e+01) (158, 9.05155456542968750000e+02) (159, 1.11480438232421875000e+02) (160, -1.50000000000000000000e+03) (161, -1.50000000000000000000e+03) (162, -1.50000000000000000000e+03) (163, -1.50000000000000000000e+03) (164, -1.50000000000000000000e+03) (165, -5.52527709960937500000e+02) (166, 1.97470825195312500000e+02) (167, -1.35992846679687500000e+03) (168, 1.50000000000000000000e+03) (169, 1.50000000000000000000e+03) (170, 1.50000000000000000000e+03) (171, 1.50000000000000000000e+03) (172, 1.50000000000000000000e+03) (173, 1.50000000000000000000e+03) (174, 1.50000000000000000000e+03) (175, 1.50000000000000000000e+03) (176, 1.50000000000000000000e+03) (177, 1.50000000000000000000e+03) (178, 1.50000000000000000000e+03) (179, 1.50000000000000000000e+03) (180, 7.86186447143554687500e+01) (181, 2.93889069557189941406e+00) (182, -2.63907222747802734375e+01) (183, 1.48156726074218750000e+03) (184, 1.44363171386718750000e+03) (185, -6.83688720703125000000e+02) (186, -1.23691162109375000000e+03) (187, -1.23462915039062500000e+03) (188, -3.00673065185546875000e+02) (189, -1.50000000000000000000e+03) (190, -1.50000000000000000000e+03) (191, -1.50000000000000000000e+03) (192, -1.50000000000000000000e+03) (193, -6.50522705078125000000e+02) (194, 1.78116760253906250000e+02) (195, -1.50000000000000000000e+03) (196, -1.50000000000000000000e+03) (197, 1.50000000000000000000e+03) (198, -1.50000000000000000000e+03) (199, 1.50000000000000000000e+03) (200, 1.50000000000000000000e+03) (201, 1.50000000000000000000e+03) (202, 1.50000000000000000000e+03) (203, 1.50000000000000000000e+03) (204, 1.50000000000000000000e+03) (205, 1.50000000000000000000e+03) (206, 1.49795629882812500000e+03) (207, 3.76347473144531250000e+02) (208, 2.04834384918212890625e+01) (209, 1.20129615068435668945e-01) (210, -1.93591442108154296875e+01) (211, -1.50332889556884765625e+01) (212, 8.50723114013671875000e+01) (213, -1.03644641113281250000e+03) (214, -1.46813745117187500000e+03) (215, -2.51877243041992187500e+02) (216, 1.17799633789062500000e+03) (217, 5.31594055175781250000e+02) (218, -2.14629470825195312500e+02) (219, -1.49299011230468750000e+03) (220, -1.50000000000000000000e+03) (221, -1.41063073730468750000e+03) (222, 1.50000000000000000000e+03) (223, -1.50000000000000000000e+03) (224, -1.50000000000000000000e+03) (225, 1.50000000000000000000e+03) (226, -1.46700000000000000000e+03) (227, 1.50000000000000000000e+03) (228, 1.50000000000000000000e+03) (229, 1.50000000000000000000e+03) (230, 1.50000000000000000000e+03) (231, 1.45471520996093750000e+03) (232, -1.49481787109375000000e+03) (233, -8.51721313476562500000e+02) (234, 1.29912786483764648438e+01) (235, -1.15380538940429687500e+02) (236, 5.10371541976928710938e+00) (237, 4.57616776227951049805e-01) (238, 4.47420597076416015625e-01) (239, 3.22302703857421875000e+01) (240, 8.77692260742187500000e+02) (241, -2.57787841796875000000e+02) (242, -6.30155578613281250000e+02) (243, -2.27758026123046875000e+02) (244, -1.20610607910156250000e+03) (245, 7.12934936523437500000e+02) (246, 1.49609667968750000000e+03) (247, -1.43907165527343750000e+03) (248, -1.50000000000000000000e+03) (249, -1.50000000000000000000e+03) (250, 1.07800500488281250000e+03) (251, -1.50000000000000000000e+03) (252, -1.09769812011718750000e+03) (253, 1.50000000000000000000e+03) (254, 6.50179077148437500000e+02) (255, 1.50000000000000000000e+03) (256, 1.50000000000000000000e+03) (257, 1.50000000000000000000e+03) (258, -1.48455822753906250000e+03) (259, -1.50000000000000000000e+03) (260, -1.50000000000000000000e+03) (261, -1.50000000000000000000e+03) (262, 1.92597751617431640625e+01) (263, 1.28587274551391601562e+01) (264, 4.26921069622039794922e-01) (265, -6.44975233078002929688e+00) (266, -8.39800186157226562500e+01) (267, 1.49767773437500000000e+03) (268, 9.27013793945312500000e+02) (269, 1.36379431152343750000e+03) (270, 4.94836959838867187500e+01) (271, -3.06716995239257812500e+01) (272, -5.68946777343750000000e+02) (273, -1.26036669921875000000e+03) (274, 1.50000000000000000000e+03) (275, 3.91931274414062500000e+02) (276, -1.50000000000000000000e+03) (277, -1.50000000000000000000e+03) (278, 1.50000000000000000000e+03) (279, -1.50000000000000000000e+03) (280, -1.08898999023437500000e+03) (281, 4.45399963378906250000e+02) (282, 3.79077453613281250000e+02) (283, 1.50000000000000000000e+03) (284, 1.50000000000000000000e+03) (285, 1.50000000000000000000e+03) (286, -1.50000000000000000000e+03) (287, -1.50000000000000000000e+03) (288, -1.50000000000000000000e+03) (289, -1.50000000000000000000e+03) (290, -7.40973758697509765625e+00) (291, -9.09695556640625000000e+02) (292, -2.79014099121093750000e+02) (293, -1.37639880371093750000e+03) (294, -1.50000000000000000000e+03) (295, -1.49705871582031250000e+03) (296, 1.50000000000000000000e+03) (297, 1.50000000000000000000e+03) (298, 1.50000000000000000000e+03) (299, 1.50000000000000000000e+03) (300, -4.49790130615234375000e+02) (301, 5.01071716308593750000e+02) (302, -4.76476074218750000000e+02) (303, -1.32957019042968750000e+03) (304, -1.48107836914062500000e+03) (305, -1.50000000000000000000e+03) (306, 7.00085144042968750000e+01) (307, 1.50000000000000000000e+03) (308, -1.50000000000000000000e+03) (309, -1.50000000000000000000e+03) (310, 2.27011108398437500000e+02) (311, 1.50000000000000000000e+03) (312, 1.50000000000000000000e+03) (313, 1.50000000000000000000e+03) (314, -1.50000000000000000000e+03) (315, -1.50000000000000000000e+03) (316, -9.04051452636718750000e+02) (317, -9.89051513671875000000e+01) (318, -1.50000000000000000000e+03) (319, -1.50000000000000000000e+03) (320, -1.50000000000000000000e+03) (321, -1.50000000000000000000e+03) (322, 1.76671844482421875000e+02) (323, 1.47508166503906250000e+03) (324, 1.50000000000000000000e+03) (325, 1.50000000000000000000e+03) (326, 1.50000000000000000000e+03) (327, 1.50000000000000000000e+03) (328, 6.57719055175781250000e+02) (329, 1.17362817382812500000e+03) (330, -1.42960937500000000000e+03) (331, -1.48723034667968750000e+03) (332, -1.47931091308593750000e+03) (333, -1.50000000000000000000e+03) (334, 1.50000000000000000000e+03) (335, 1.50000000000000000000e+03) (336, -1.50000000000000000000e+03) (337, -1.50000000000000000000e+03) (338, -1.50000000000000000000e+03) (339, 1.50000000000000000000e+03) (340, 1.50000000000000000000e+03) (341, 1.50000000000000000000e+03) (342, 1.45295812988281250000e+03) (343, -8.45767944335937500000e+02) (344, -1.08462963867187500000e+03) (345, -1.50000000000000000000e+03) (346, -1.50000000000000000000e+03) (347, -1.50000000000000000000e+03) (348, -1.50000000000000000000e+03) (349, -1.19513647460937500000e+03) (350, 1.49884289550781250000e+03) (351, 1.50000000000000000000e+03) (352, 1.50000000000000000000e+03) (353, 1.50000000000000000000e+03) (354, 1.50000000000000000000e+03) (355, 1.50000000000000000000e+03) (356, 1.48876977539062500000e+03) (357, -4.17163772583007812500e+01) (358, -1.49623693847656250000e+03) (359, -1.50000000000000000000e+03) (360, 1.50000000000000000000e+03) (361, -1.49724072265625000000e+03) (362, -2.65352539062500000000e+02) (363, 1.50000000000000000000e+03) (364, -1.39768200683593750000e+03) (365, -1.16580004882812500000e+03) (366, -1.36580004882812500000e+03) (367, 1.50000000000000000000e+03) (368, 1.50000000000000000000e+03) (369, 9.95831848144531250000e+02) (370, -6.24334045410156250000e+02) (371, -1.48246069335937500000e+03) (372, -1.48689001464843750000e+03) (373, -1.50000000000000000000e+03) (374, -1.50000000000000000000e+03) (375, -1.50000000000000000000e+03) (376, -1.39335021972656250000e+03) (377, 5.19726257324218750000e+02) (378, 1.50000000000000000000e+03) (379, 1.50000000000000000000e+03) (380, 1.50000000000000000000e+03) (381, 1.50000000000000000000e+03) (382, 1.50000000000000000000e+03) (383, 1.50000000000000000000e+03) (384, 1.45572131347656250000e+03) (385, -1.50000000000000000000e+03) (386, -1.50000000000000000000e+03) (387, -1.50000000000000000000e+03) (388, 1.50000000000000000000e+03) (389, -1.50000000000000000000e+03) (390, -1.50000000000000000000e+03) (391, 1.50000000000000000000e+03) (392, -1.50000000000000000000e+03) (393, 1.50000000000000000000e+03) (394, -1.10626135253906250000e+03) (395, 1.50000000000000000000e+03) (396, 1.50000000000000000000e+03) (397, -9.43819885253906250000e+02) (398, -1.45912854003906250000e+03) (399, -1.49070886230468750000e+03) (400, -1.49240014648437500000e+03) (401, -1.49574487304687500000e+03) (402, -1.50000000000000000000e+03) (403, -1.50000000000000000000e+03) (404, 7.77516906738281250000e+02) (405, 1.50000000000000000000e+03) (406, 1.50000000000000000000e+03) (407, 1.50000000000000000000e+03) (408, 1.50000000000000000000e+03) (409, 1.50000000000000000000e+03) (410, 1.50000000000000000000e+03) (411, 1.50000000000000000000e+03) (412, 1.46172058105468750000e+03) (413, -1.50000000000000000000e+03) (414, -1.50000000000000000000e+03) (415, -1.49710644531250000000e+03) (416, 1.50000000000000000000e+03) (417, 1.50000000000000000000e+03) (418, 1.50000000000000000000e+03) (419, 1.50000000000000000000e+03) (420, -1.50000000000000000000e+03) (421, 1.50000000000000000000e+03) (422, 1.50000000000000000000e+03) (423, 1.50000000000000000000e+03) (424, 1.22249572753906250000e+03) (425, -2.10595733642578125000e+02) (426, -6.94632507324218750000e+02) (427, -1.34845263671875000000e+03) (428, -2.00252666473388671875e+01) (429, -1.39016955566406250000e+03) (430, -1.41538281250000000000e+03) (431, 1.34267822265625000000e+03) (432, 1.50000000000000000000e+03) (433, 1.50000000000000000000e+03) (434, 1.50000000000000000000e+03) (435, 1.50000000000000000000e+03) (436, 1.50000000000000000000e+03) (437, 1.50000000000000000000e+03) (438, 1.50000000000000000000e+03) (439, 1.50000000000000000000e+03) (440, -5.96098022460937500000e+02) (441, -1.47951928710937500000e+03) (442, -1.36980871582031250000e+03) (443, -1.44367224121093750000e+03) (444, 1.46601354980468750000e+03) (445, 1.50000000000000000000e+03) (446, 1.50000000000000000000e+03) (447, 1.50000000000000000000e+03) (448, -9.04685852050781250000e+02) (449, 1.50000000000000000000e+03) (450, 1.50000000000000000000e+03) (451, 1.50000000000000000000e+03) (452, 4.02024963378906250000e+02) (453, 4.48674530029296875000e+02) (454, -1.60303894042968750000e+02) (455, -1.43114025878906250000e+03) (456, 9.34226036071777343750e-01) (457, 1.34515733718872070312e+01) (458, 1.49074291992187500000e+03) (459, 1.50000000000000000000e+03) (460, 1.50000000000000000000e+03) (461, 1.50000000000000000000e+03) (462, 1.50000000000000000000e+03) (463, 1.50000000000000000000e+03) (464, 1.50000000000000000000e+03) (465, 1.50000000000000000000e+03) (466, 1.50000000000000000000e+03) (467, 